-3.815615475177764893e-01
5.207935571670532227e-01
4.642087817192077637e-01
1.357654571533203125e+00
-2.252361029386520386e-01
-1.391160249710083008e+00
4.538425505161285400e-01
-7.588100433349609375e-01
2.084256887435913086e+00
-1.572245597839355469e+00
8.206481486558914185e-02
-4.338529706001281738e-01
-2.254131317138671875e+00
7.170818001031875610e-02
1.205204486846923828e+00
-3.719972074031829834e-01
-5.633137226104736328e-01
1.265854954719543457e+00
1.115026116371154785e+00
3.685453534126281738e-01
1.282865762710571289e+00
-1.581234931945800781e-01
-9.399834275245666504e-01
2.482820749282836914e-01
2.305227518081665039e+00
5.506773591041564941e-01
-5.040398836135864258e-01
5.640685558319091797e-01
-3.377443552017211914e-01
-1.701276451349258423e-01
5.836251378059387207e-01
1.272149324417114258e+00
-1.038313627243041992e+00
-8.255110383033752441e-01
-2.197316437959671021e-01
5.549880862236022949e-01
-5.246853828430175781e-01
1.619626045227050781e+00
-9.318994283676147461e-01
1.948993444442749023e+00
1.528492808341979980e+00
4.179430305957794189e-01
5.746192857623100281e-02
-1.650553345680236816e-01
-5.022772401571273804e-02
2.176022082567214966e-01
-4.189320206642150879e-01
2.690658867359161377e-01
-2.535520076751708984e+00
-1.983320474624633789e+00
-3.253771364688873291e-01
2.458819597959518433e-01
-6.818639487028121948e-02
1.925535351037979126e-01
-6.619859337806701660e-01
-1.527717616409063339e-02
1.768487811088562012e+00
-9.029614925384521484e-02
4.703209698200225830e-01
-2.013614028692245483e-01
-5.160868763923645020e-01
-3.895919024944305420e-01
7.959659099578857422e-01
4.921838939189910889e-01
-5.390419363975524902e-01
-4.945170879364013672e-01
9.849278926849365234e-01
-1.128001332283020020e+00
-6.614757776260375977e-01
1.470080375671386719e+00
6.712470948696136475e-02
-1.290113568305969238e+00
7.031301856040954590e-01
6.495842337608337402e-01
2.337888814508914948e-02
1.876319795846939087e-01
-9.294698238372802734e-01
1.513434946537017822e-01
2.802965044975280762e-01
4.911755621433258057e-01
-1.024542570114135742e+00
1.286364555358886719e+00
1.168730020523071289e+00
4.308012425899505615e-01
-4.226356744766235352e-01
1.266049265861511230e+00
-1.407515406608581543e+00
2.827791571617126465e-01
1.237473607063293457e+00
-2.075639218091964722e-01
4.055255651473999023e-02
-1.243105053901672363e+00
-5.054254084825515747e-02
9.407427906990051270e-01
-5.866292119026184082e-01
-7.014721632003784180e-01
9.578478336334228516e-01
-8.427062034606933594e-01
1.341938138008117676e+00
-1.744713544845581055e+00
-2.056696116924285889e-01
-1.698703289031982422e+00
-1.784676462411880493e-01
2.257431298494338989e-01
3.109672397840768099e-04
-1.464657336473464966e-01
-1.264390442520380020e-02
-2.874690108001232147e-02
-1.048292815685272217e-01
-1.075223922729492188e+00
1.661144018173217773e+00
4.480386897921562195e-02
3.735041022300720215e-01
6.543313264846801758e-01
-5.702401511371135712e-03
5.008161664009094238e-01
5.026903748512268066e-01
4.643055200576782227e-01
7.843278050422668457e-01
6.251478791236877441e-01
-4.984200894832611084e-01
-1.267375230789184570e+00
7.440403103828430176e-01
2.071265727281570435e-01
-1.279019951820373535e+00
1.213977411389350891e-01
3.583128750324249268e-01
-1.257223248481750488e+00
7.431590557098388672e-01
2.166424095630645752e-01
1.739294886589050293e+00
4.577599465847015381e-01
-9.681015461683273315e-02
-1.876092553138732910e-01
1.087109923362731934e+00
-2.196033671498298645e-02
-4.360293447971343994e-01
-1.973285973072052002e-01
6.967141628265380859e-01
-4.589602053165435791e-01
-1.336287975311279297e+00
-4.565945267677307129e-01
1.064705967903137207e+00
3.333980683237314224e-03
2.239440917968750000e+00
1.169280521571636200e-02
-1.401964068412780762e+00
-2.610142230987548828e-01
-9.313067793846130371e-01
-5.878658890724182129e-01
3.472655415534973145e-01
-7.543389797210693359e-01
-1.127060294151306152e+00
7.975767850875854492e-01
2.108844071626663208e-01
-1.267099142074584961e+00
-6.613612771034240723e-01
-7.290331125259399414e-01
7.715070247650146484e-01
-6.633640527725219727e-01
2.102244347333908081e-01
-4.841579794883728027e-01
3.384155035018920898e-01
-7.240021824836730957e-01
-5.671105980873107910e-01
-2.146111242473125458e-02
2.474565505981445312e-01
-5.605878233909606934e-01
-4.219013452529907227e-01
1.763946294784545898e+00
-5.150992870330810547e-01
-8.079681992530822754e-01
-1.496811360120773315e-01
-9.632886648178100586e-01
-3.709620535373687744e-01
-6.245175004005432129e-01
1.307486295700073242e+00
-1.960603237152099609e+00
1.052845239639282227e+00
2.033566474914550781e+00
-7.876383662223815918e-01
2.684452831745147705e-01
3.951978981494903564e-01
6.884469985961914062e-01
1.243856906890869141e+00
-1.623791754245758057e-01
-1.378754258155822754e+00
-4.154660999774932861e-01
2.095741927623748779e-01
1.383721351623535156e+00
4.270784854888916016e-01
1.416647911071777344e+00
1.171840280294418335e-01
5.241656899452209473e-01
4.837216138839721680e-01
-5.040865540504455566e-01
4.559157192707061768e-01
5.969222784042358398e-01
-7.322137951850891113e-01
8.083679080009460449e-01
2.771349847316741943e-01
4.504418671131134033e-01
-1.504121541976928711e+00
-2.192555189132690430e+00
-1.136632919311523438e+00
1.969914913177490234e+00
4.116332828998565674e-01
6.883627772331237793e-01
-1.320784687995910645e+00
5.220425873994827271e-02
1.391918778419494629e+00
2.935360670089721680e-01
-3.826577588915824890e-02
8.571771383285522461e-01
-1.717707514762878418e-01
5.244361162185668945e-01
1.439020037651062012e+00
1.169229820370674133e-01
-2.092384845018386841e-01
-5.833832547068595886e-03
4.350252151489257812e-01
2.535836398601531982e-01
6.291438937187194824e-01
-1.466530203819274902e+00
-9.035146832466125488e-01
-1.489068984985351562e+00
8.131512403488159180e-01
9.522791504859924316e-01
-7.158525586128234863e-01
-5.275186896324157715e-01
3.381786644458770752e-01
-1.535555243492126465e+00
1.290877223014831543e+00
6.537706851959228516e-01
2.730407714843750000e-01
-1.233200311660766602e+00
2.627080678939819336e-01
-1.121233105659484863e+00
-9.462768435478210449e-01
-6.531561017036437988e-01
8.236463069915771484e-01
1.536382198333740234e+00
-7.758669853210449219e-01
-7.453051805496215820e-01
-1.518959641456604004e+00
2.596079707145690918e-01
-7.326052784919738770e-01
-1.603171467781066895e+00
4.095078110694885254e-01
1.274305701255798340e+00
-9.455344676971435547e-01
-1.314142346382141113e+00
-1.042225435376167297e-01
1.560001492500305176e+00
1.755647540092468262e+00
9.048299193382263184e-01
-3.294729888439178467e-01
5.772748589515686035e-01
3.198715150356292725e-01
-4.694541394710540771e-01
5.366543531417846680e-01
9.669637084007263184e-01
4.071566760540008545e-01
-6.145927309989929199e-01
2.828141301870346069e-02
-2.774938642978668213e-01
4.084959924221038818e-01
-5.758807659149169922e-01
5.422938466072082520e-01
5.436289682984352112e-02
-5.094003677368164062e-01
5.088925957679748535e-01
-1.145132303237915039e+00
1.071930527687072754e+00
-6.081324219703674316e-01
4.950543344020843506e-01
-2.465390443801879883e+00
6.201191544532775879e-01
1.799552440643310547e-01
-1.031714320182800293e+00
2.622164726257324219e+00
-6.438905000686645508e-01
1.241817604750394821e-02
-1.991758704185485840e+00
-3.942666947841644287e-01
1.510651558637619019e-01
-1.612373352050781250e+00
-7.244697809219360352e-01
-1.673573970794677734e+00
-3.283129930496215820e-01
7.048927545547485352e-01
3.338981568813323975e-01
-8.075966238975524902e-01
