4.836881874582738262e-29 4.827748452748035606e-29 4.888510037860683845e-29 -4.865475313872704883e-29 4.831037880907738243e-29 4.871419817016677611e-29 -4.865949574121510240e-29 -4.846763399830213834e-29 -4.876438068228021602e-29 -4.840835447646700684e-29 4.900693350318255975e-29 -4.844451682043841530e-29 4.894657967355032474e-29 4.904025209122045893e-29 -4.899107768306228421e-29 4.839348268617769166e-29 4.855392167834176272e-29 -4.873797738644888226e-29 -4.836476827441309321e-29 4.904898197054650169e-29 -4.872896764542779572e-29 4.864305311431489637e-29 -4.830372532297263215e-29 4.831847072410934693e-29 -4.805619818613580077e-29 -4.900766776397385738e-29 -4.837256227215678531e-29 4.870308495253455414e-29 -4.683047317495146366e-29 -4.868769556857268488e-29
-3.442375957965850830e-01 8.576633781194686890e-02 1.620960682630538940e-01 -9.748316556215286255e-02 2.762050330638885498e-01 -9.613043069839477539e-02 8.432757109403610229e-02 -2.916036844253540039e-01 -1.964045614004135132e-01 -2.471180707216262817e-01 2.194713205099105835e-01 -1.441136896610260010e-01 -3.191154599189758301e-01 -1.558867692947387695e-01 1.629940718412399292e-01 -9.812418371438980103e-02 -2.346959263086318970e-01 1.392465531826019287e-01 -1.396791189908981323e-01 2.078486047685146332e-02 -2.411306947469711304e-01 2.876926362514495850e-01 -1.000228337943553925e-02 3.828503657132387161e-03 -3.530741035938262939e-01 2.023342698812484741e-01 -3.475734889507293701e-01 3.077279329299926758e-01 -1.157787144184112549e-01 9.023790061473846436e-02
-2.475807517766952515e-01 -4.405589401721954346e-02 1.914195418357849121e-01 -2.032298594713211060e-02 2.863157391548156738e-01 -3.586684167385101318e-02 -2.222325205802917480e-01 -2.020501047372817993e-01 -1.882657781243324280e-02 -1.819351315498352051e-01 3.032177984714508057e-01 3.324696719646453857e-01 2.394679002463817596e-02 -2.216931059956550598e-02 -2.525730133056640625e-01 -2.118725180625915527e-01 -3.477787375450134277e-01 2.603973746299743652e-01 1.605649478733539581e-02 -1.289205700159072876e-01 2.202742397785186768e-01 -1.221271976828575134e-01 3.776242136955261230e-01 1.234207376837730408e-01 -4.685152787715196609e-03 -1.663668304681777954e-01 1.306442022323608398e-01 1.737910658121109009e-01 1.344733834266662598e-01 -3.403310477733612061e-01
2.884079813957214355e-01 2.026262134313583374e-01 -1.925454437732696533e-01 -1.800167858600616455e-01 -7.398144155740737915e-02 -2.160339653491973877e-01 1.671462357044219971e-01 -1.721962913870811462e-02 3.344380855560302734e-01 -1.269037555903196335e-02 -1.269077211618423462e-01 -9.668787568807601929e-02 -2.080312967300415039e-01 1.647540926933288574e-01 -7.122797518968582153e-02 -2.295145951211452484e-02 -8.607205003499984741e-02 7.889251410961151123e-02 -1.880616396665573120e-01 2.123441398143768311e-01 2.250768058001995087e-02 -3.162577450275421143e-01 -3.648380935192108154e-01 -6.469603162258863449e-03 1.053925380110740662e-01 -2.075557410717010498e-02 8.233691751956939697e-02 -1.021403968334197998e-01 -7.467578351497650146e-02 3.075248897075653076e-01
-6.846383959054946899e-02 1.455838829278945923e-01 1.864978522062301636e-01 9.679835289716720581e-02 -3.318519890308380127e-02 -9.622158110141754150e-02 -1.562161594629287720e-01 -7.577577233314514160e-02 -1.814078837633132935e-01 2.246738672256469727e-01 1.917939037084579468e-01 5.662638321518898010e-02 -7.248898595571517944e-02 2.220954746007919312e-01 -3.641143813729286194e-02 9.081824868917465210e-02 -6.587217003107070923e-02 -4.748162254691123962e-02 -1.248502656817436218e-01 -2.121208012104034424e-01 -6.782747805118560791e-02 3.176693245768547058e-02 -3.759232163429260254e-02 -2.131501212716102600e-02 2.630689553916454315e-02 -2.079293131828308105e-02 3.624400496482849121e-02 1.151177659630775452e-02 -1.918250024318695068e-01 -4.188941046595573425e-02
4.896980518497341957e-29 -4.844249459399680870e-29 4.903117313709199597e-29 4.839056670787126786e-29 -4.857541987134598524e-29 -4.856427355179284411e-29 -4.845166081682587670e-29 -4.894345605592177169e-29 4.839635954403212009e-29 4.890388722336122831e-29 -4.865927305556528262e-29 4.857466755496145897e-29 4.825884814600287145e-29 4.907228572287358725e-29 4.859874468853183753e-29 -4.834202725474163330e-29 -4.842687650585404346e-29 -4.841556768596184466e-29 4.870629583886371223e-29 4.831872350241454775e-29 4.867403651229522603e-29 -4.903708935313991051e-29 -4.823925481808426943e-29 4.798359062723240198e-29 4.853006422115566583e-29 -4.898813462136601746e-29 -4.841899223014420822e-29 -4.837609815916405875e-29 4.865416031341604213e-29 4.885226026378949797e-29
3.067157268524169922e-01 -3.071180582046508789e-01 1.832812875509262085e-01 2.294505238533020020e-01 -2.821702957153320312e-01 1.189311668276786804e-01 6.283372640609741211e-02 -2.154787778854370117e-01 -3.591184616088867188e-01 3.425456583499908447e-02 1.520896144211292267e-02 -6.025674194097518921e-02 2.886341214179992676e-01 -1.528626531362533569e-01 -2.522499561309814453e-01 2.174738943576812744e-01 2.235597074031829834e-01 7.175244390964508057e-02 2.236512899398803711e-01 -3.431640267372131348e-01 1.766551434993743896e-01 1.613150537014007568e-01 1.764302104711532593e-01 2.970889806747436523e-01 7.181230932474136353e-02 1.125598922371864319e-01 1.607423722743988037e-01 -1.760125756263732910e-01 -4.808297753334045410e-02 2.916404306888580322e-01
-5.661850795149803162e-02 8.818588405847549438e-02 -2.330214828252792358e-01 -2.769269645214080811e-01 2.467958182096481323e-01 8.650789409875869751e-02 1.627237796783447266e-01 3.495080471038818359e-01 -6.184557080268859863e-02 4.864270985126495361e-02 2.710297703742980957e-01 1.205733120441436768e-01 -2.332319766283035278e-01 2.207989245653152466e-01 3.905305564403533936e-01 -2.171102315187454224e-01 -1.623944193124771118e-02 -2.800835072994232178e-01 -3.292297199368476868e-02 -1.990430802106857300e-01 3.137373626232147217e-01 2.545430064201354980e-01 9.571981430053710938e-02 2.611535787582397461e-01 -1.269767880439758301e-01 -4.737865179777145386e-02 2.510333061218261719e-01 -1.183592528104782104e-01 3.077760040760040283e-01 -2.330600470304489136e-01
-4.379968717694282532e-02 -2.723101973533630371e-01 -1.566602885723114014e-01 2.667958140373229980e-01 -2.236450314521789551e-01 -3.835290372371673584e-01 -9.345242381095886230e-02 -8.864592760801315308e-02 -3.341446220874786377e-01 -1.625104844570159912e-01 4.272124916315078735e-02 -8.758360892534255981e-02 2.575033903121948242e-01 6.853806227445602417e-02 1.659024655818939209e-01 2.406574934720993042e-01 2.422289103269577026e-01 4.649927467107772827e-02 2.148749977350234985e-01 -2.144249677658081055e-01 4.004607200622558594e-01 -6.267554708756506443e-04 -1.216043382883071899e-01 2.533685564994812012e-01 1.736759990453720093e-01 9.192959964275360107e-02 5.364218726754188538e-02 3.138561844825744629e-01 -2.529936134815216064e-01 1.700719445943832397e-02
4.894337480575224286e-29 4.859175416468681948e-29 4.900750526363479971e-29 4.836071780299880381e-29 4.847550322768428306e-29 4.875918969922698480e-29 4.821292073536031209e-29 -4.896431327536637784e-29 4.869588378010186874e-29 -4.903902130161537396e-29 -4.832668000049729752e-29 -4.890879834471941576e-29 -4.897644663401601742e-29 -4.858627730140746828e-29 -4.890971015217746160e-29 4.893949887173916355e-29 -4.890936107737504141e-29 4.852538180397837437e-29 4.859024351338669074e-29 -4.907586674886393226e-29 -4.829489914714937002e-29 4.871712618553535233e-29 -4.882006413179731198e-29 -4.839451787352279980e-29 4.861327041328427063e-29 4.892771759715748225e-29 -4.870744838756480647e-29 4.866961289195421160e-29 -4.840482761725634772e-29 -4.899574806317742325e-29
2.849284932017326355e-02 -1.356116379611194134e-03 -1.097519509494304657e-02 -7.587915170006453991e-04 4.940138757228851318e-02 1.698933355510234833e-02 2.620485052466392517e-02 -1.220116391777992249e-03 -3.324853256344795227e-02 -6.684561376459896564e-04 3.783848136663436890e-02 -7.240285724401473999e-02 1.256841793656349182e-02 -1.213182113133370876e-03 1.135678309947252274e-02 -5.499745602719485760e-04 -6.287856027483940125e-03 1.931225135922431946e-02 4.630808718502521515e-03 -8.400069200433790684e-04 -5.865664407610893250e-02 -7.196932286024093628e-02 -3.400122746825218201e-02 2.385843731462955475e-02 1.103261858224868774e-02 7.213971763849258423e-02 -1.612463444471359253e-01 -2.199009177275002003e-04 -1.047254055738449097e-01 2.897612191736698151e-02
4.857099926027050891e-29 -4.855413834546050628e-29 -4.843653022970028448e-29 4.886025588232424311e-29 -4.835976386582322450e-29 4.865742235725934802e-29 -4.899551334046545106e-29 4.849525905594194276e-29 4.901157679990785585e-29 -4.895967599717215795e-29 4.868401523681958240e-29 -4.899059018204511119e-29 -4.855926914320297540e-29 -4.899831797594696497e-29 -4.860149515723366555e-29 4.835593608005875487e-29 4.865469295341628673e-29 4.829691234579436230e-29 4.830967765020700395e-29 -4.874510633650865314e-29 4.901423097211246451e-29 -4.872860352429768501e-29 4.842342186901629886e-29 4.858481479835594922e-29 -4.891638470314097861e-29 4.831373414015236957e-29 -4.864915590482617343e-29 -4.873052945424207225e-29 -4.879334486308447719e-29 4.872516995231870714e-29
4.889068256618002333e-29 4.849705558746819147e-29 4.891224395376054605e-29 -4.894549633795660692e-29 -4.842520937274593326e-29 4.893171390179208577e-29 4.827141182962446006e-29 -4.766862885895217439e-29 -4.826587177176880865e-29 4.870310300812778277e-29 4.825594420475860007e-29 -4.907568920219718407e-29 4.834496730717236194e-29 4.828663269471619543e-29 -4.899226032441875949e-29 4.865810245127095976e-29 -4.895893270858424600e-29 -4.863972486662975218e-29 4.859989422796739366e-29 4.872766162418425813e-29 -4.899704204735880843e-29 4.776639387775413145e-29 -4.907008895903077056e-29 -4.863278850956442003e-29 4.845611152055673408e-29 -4.858227196897625045e-29 4.886910613227181008e-29 4.840066279375161032e-29 -4.873663224475334930e-29 -4.842158019850697856e-29
-5.675878748297691345e-02 2.613805234432220459e-01 -1.286851912736892700e-01 2.370352149009704590e-01 1.439737826585769653e-01 -7.925529032945632935e-02 4.811341166496276855e-01 2.187403887510299683e-01 1.229329630732536316e-01 2.141823619604110718e-01 1.127966567873954773e-01 -1.246324330568313599e-01 -1.730556637048721313e-01 2.554180920124053955e-01 5.461374763399362564e-03 -1.586187034845352173e-01 -2.516221404075622559e-01 2.572616934776306152e-01 3.153360188007354736e-01 -1.912548020482063293e-02 -3.877185285091400146e-01 2.576120793819427490e-01 2.337902635335922241e-01 -1.181372925639152527e-01 -2.035553306341171265e-01 2.151727974414825439e-01 8.029145747423171997e-02 -2.621998488903045654e-01 -2.942809462547302246e-01 -1.651420146226882935e-01
4.074042737483978271e-01 1.943479627370834351e-01 -1.835136860609054565e-01 3.179026842117309570e-01 4.626971483230590820e-01 1.007648780941963196e-01 2.403753250837326050e-01 2.587345540523529053e-01 -2.791970670223236084e-01 -2.790491580963134766e-01 3.237130120396614075e-02 -8.298248052597045898e-02 1.820316612720489502e-01 -1.987257301807403564e-01 1.110572144389152527e-01 -2.607368826866149902e-01 2.135653942823410034e-01 -1.034222263842821121e-02 2.283197045326232910e-01 -2.277114391326904297e-01 2.150396853685379028e-01 1.415841728448867798e-01 -3.465176373720169067e-02 -1.854115575551986694e-01 3.824741542339324951e-01 -3.897048160433769226e-02 1.629381626844406128e-01 1.487509161233901978e-01 -1.093007717281579971e-02 1.519102603197097778e-01
-3.051101788878440857e-02 -1.513939052820205688e-01 3.898575305938720703e-01 -1.699666976928710938e-01 -1.498550921678543091e-01 8.044306188821792603e-02 -3.035692274570465088e-01 6.624510139226913452e-02 1.970319449901580811e-01 -6.279849261045455933e-02 -1.342004537582397461e-01 9.078592807054519653e-02 -1.077492833137512207e-01 6.612085737287998199e-03 -3.886452019214630127e-01
-2.124852538108825684e-01 -1.216332763433456421e-01 1.473954916000366211e-01 1.421412080526351929e-01 3.470525145530700684e-01 -1.058205738663673401e-01 2.581448256969451904e-01 -2.902975380420684814e-01 3.909412920475006104e-01 1.693473160266876221e-01 6.629353761672973633e-02 -3.373360931873321533e-01 1.215831562876701355e-01 5.815786123275756836e-02 2.489019185304641724e-01
-2.220862172544002533e-02 3.499421849846839905e-02 3.116220235824584961e-01 1.608804911375045776e-01 1.402895152568817139e-01 -3.309425339102745056e-02 -1.609898209571838379e-01 1.472840160131454468e-01 2.509485781192779541e-01 -1.950637064874172211e-02 -1.672571003437042236e-01 -8.825180120766162872e-03 -6.479155272245407104e-03 -1.747643649578094482e-01 -3.208632767200469971e-01
9.215785562992095947e-02 8.562684059143066406e-03 4.071176052093505859e-01 -1.551087200641632080e-01 -5.394141748547554016e-02 1.066037341952323914e-01 4.615064561367034912e-01 -3.048001229763031006e-01 1.330944001674652100e-01 8.684676885604858398e-02 -1.273023039102554321e-01 6.967356055974960327e-02 6.112533435225486755e-02 -2.042855471372604370e-01 -4.456316307187080383e-02
2.028679698705673218e-01 -1.284223347902297974e-01 -3.684063851833343506e-01 -3.858681023120880127e-01 -1.156423762440681458e-01 9.947562962770462036e-02 -1.065580323338508606e-01 5.749316141009330750e-02 2.083432525396347046e-01 6.518404185771942139e-02 -1.357366293668746948e-01 3.492605313658714294e-02 9.094507247209548950e-02 3.194072544574737549e-01 2.413438707590103149e-01
1.362765729427337646e-01 6.362648308277130127e-02 -4.410853087902069092e-01 1.938402354717254639e-01 -7.954189926385879517e-02 3.078672885894775391e-01 1.396552324295043945e-01 -1.602397561073303223e-01 4.054670408368110657e-02 1.026927903294563293e-01 -3.330644220113754272e-03 4.805537313222885132e-02 6.675796210765838623e-02 -2.549355924129486084e-01 3.977698683738708496e-01
1.094185858964920044e-01 -2.494926750659942627e-01 -3.588936924934387207e-01 4.271036684513092041e-01 2.427629977464675903e-01 1.347298324108123779e-01 1.277555972337722778e-01 -1.393223702907562256e-01 1.684056818485260010e-01 -1.537368446588516235e-01 -5.692908167839050293e-01 2.913158535957336426e-01 -7.890472561120986938e-02 -1.443842649459838867e-01 -2.187425345182418823e-01
-2.195624256273731589e-04 1.979305297136306763e-01 -2.369769811630249023e-01 -1.933439821004867554e-01 -2.777683921158313751e-02 -3.208594024181365967e-02 -2.378455251455307007e-01 3.642386794090270996e-01 -3.731627762317657471e-01 5.477529764175415039e-02 2.200606614351272583e-01 -1.130527108907699585e-01 -1.078433822840452194e-03 -7.067943364381790161e-02 1.702260076999664307e-01
8.864027261734008789e-02 5.740606784820556641e-02 -1.092324703931808472e-01 -1.667075455188751221e-01 1.105027794837951660e-01 -8.641459047794342041e-02 -9.639029391109943390e-03 -1.742533966898918152e-02 -2.648520469665527344e-01 3.976786974817514420e-03 3.142355084419250488e-01 5.059933289885520935e-02 9.785863757133483887e-02 4.495557397603988647e-02 1.896328479051589966e-01
1.034403801895678043e-03 2.446316629648208618e-01 -1.639405190944671631e-01 -3.588868081569671631e-01 -9.609657339751720428e-03 1.857249531894922256e-03 1.504253745079040527e-01 -3.315508663654327393e-01 1.101774945855140686e-01 9.367614984512329102e-04 3.873443696647882462e-03 3.865727921947836876e-04 3.192176518496125937e-04 -9.582506120204925537e-02 3.292231559753417969e-01
1.011238172650337219e-01 -3.036902844905853271e-01 1.716469377279281616e-01 1.446691751480102539e-01 -6.862574815750122070e-02 2.847681641578674316e-01 2.711602449417114258e-01 1.852365881204605103e-01 -2.288672178983688354e-01 7.107308506965637207e-02 1.410404294729232788e-01 8.072624355554580688e-02 7.679682970046997070e-02 -6.263632178306579590e-01 2.249886989593505859e-01
-1.451343894004821777e-01 3.815744519233703613e-01 2.869591712951660156e-01 3.510689735412597656e-01 1.590036153793334961e-01 -3.836523592472076416e-01 3.777979910373687744e-01 -2.354475557804107666e-01 -4.176729023456573486e-01 -1.400856375694274902e-01 4.011139571666717529e-01 -9.902248531579971313e-02 -7.141570001840591431e-02 -3.657875359058380127e-01 -1.315770149230957031e-01
8.100610971450805664e-02 -1.988789886236190796e-01 -9.368852525949478149e-02 5.910288915038108826e-02 -2.282075956463813782e-02 1.426320672035217285e-01 1.002096086740493774e-01 2.530284523963928223e-01 6.151090189814567566e-02 7.837241888046264648e-02 -1.006787642836570740e-01 5.894186347723007202e-02 4.787736758589744568e-02 -6.336608529090881348e-02 -2.162971496582031250e-01
-2.807180285453796387e-01 3.660421818494796753e-02 -1.687898486852645874e-01 -1.539012491703033447e-01 -3.204503655433654785e-01 -3.655210435390472412e-01 9.019049257040023804e-02 -3.963996171951293945e-01 -2.494118660688400269e-01 -2.299618571996688843e-01 1.830971688032150269e-01 -3.926350474357604980e-01 2.030164599418640137e-01 5.367377772927284241e-03 2.486006170511245728e-01
-2.058205008506774902e-01 -3.914751112461090088e-03 3.501532971858978271e-01 4.291969537734985352e-01 2.857278659939765930e-02 -3.585985600948333740e-01 3.024342954158782959e-01 7.456957548856735229e-02 4.181549549102783203e-01 -5.599586293101310730e-02 9.451593458652496338e-02 1.542521268129348755e-01 -2.121751904487609863e-01 2.620685696601867676e-01 4.850485622882843018e-01
8.446982502937316895e-02 2.312323153018951416e-01 2.953690886497497559e-01 2.421999722719192505e-01 4.234936833381652832e-02 5.810182690620422363e-01 3.922453522682189941e-01 3.806657493114471436e-01 -8.339540660381317139e-02 -1.075465008616447449e-01 -9.037520736455917358e-02 -1.929163485765457153e-01 -4.132127016782760620e-02 3.169250488281250000e-01 9.638671576976776123e-02
3.493827283382415771e-01 3.851987719535827637e-01 -1.430594027042388916e-01 -2.484351280145347118e-04 -2.251109778881072998e-01 1.419619172811508179e-01 -2.378365248441696167e-01 -1.997182965278625488e-01 -4.221447408199310303e-01 -1.916810274124145508e-01 1.380606740713119507e-01 -1.576427519321441650e-01 -3.557085692882537842e-01 -1.610225439071655273e-01 -2.481263577938079834e-01
5.807779356837272644e-02 5.138797760009765625e-01 2.555924355983734131e-01 8.835421502590179443e-02 -2.588845789432525635e-01 -1.528907269239425659e-01 -5.758152157068252563e-02 2.295798212289810181e-01 1.590261608362197876e-01 -1.787225715816020966e-02 -2.284937202930450439e-01 -9.921026229858398438e-02 -2.923266291618347168e-01 -2.303833141922950745e-02 -1.715621948242187500e-01
1.999736130237579346e-01 1.166169717907905579e-01 3.941772580146789551e-01 -1.191694661974906921e-01 -8.111019432544708252e-02 -1.645882725715637207e-01 6.737951040267944336e-01 7.593150436878204346e-02 1.259923130273818970e-01 2.509087324142456055e-01 1.684912294149398804e-01 -1.624929308891296387e-01 1.158533096313476562e-01 -2.458903938531875610e-01 1.044021267443895340e-02
1.010304540395736694e-01 -6.550875958055257797e-03 -3.340958058834075928e-01 3.057321608066558838e-01 1.917595863342285156e-01 5.306520462036132812e-01 -2.800059914588928223e-01 1.198663958348333836e-03 -2.297282963991165161e-01 -2.742986083030700684e-01 -4.091816768050193787e-02 -1.775425225496292114e-01 1.277469247579574585e-01 -8.478225022554397583e-02 -2.402727752923965454e-01
5.676290392875671387e-02 -4.217566922307014465e-02 2.132458053529262543e-02 4.067047312855720520e-02 2.732364833354949951e-01 5.117583274841308594e-01 4.380088448524475098e-01 -2.981006801128387451e-01 2.130537629127502441e-01 3.124039471149444580e-01 2.814179658889770508e-01 -5.645357817411422729e-02 3.374549001455307007e-02 -2.969930469989776611e-01 -3.945403397083282471e-01
1.062763556838035583e-01 -3.188716173171997070e-01 1.269699186086654663e-01 -1.099893674254417419e-01 1.259690970182418823e-01 -3.859530091285705566e-01 2.559914886951446533e-01 1.485788971185684204e-01 -4.985297322273254395e-01 1.979522854089736938e-01 1.710061430931091309e-01 -3.196680545806884766e-01 4.143233299255371094e-01 -3.098925948143005371e-01 -1.575098782777786255e-01
1.765274554491043091e-01 -2.659067809581756592e-01 -3.123763501644134521e-01 3.449345827102661133e-01 -2.727224528789520264e-01 -2.270077317953109741e-01 -2.747161984443664551e-01 -3.730485737323760986e-01 -4.220676720142364502e-01 1.999864168465137482e-02 -2.306785620748996735e-02 1.069455407559871674e-02 -4.382882267236709595e-02 -1.873175054788589478e-01 2.491301298141479492e-01
1.995617896318435669e-01 4.782775640487670898e-01 -3.813271522521972656e-01 2.170993387699127197e-01 -1.614100039005279541e-01 3.442266881465911865e-01 -1.856837868690490723e-01 -1.250169128179550171e-01 3.979417979717254639e-01 -2.121063321828842163e-01 2.295443266630172729e-01 1.323417574167251587e-01 -4.426497817039489746e-01 -5.502353608608245850e-02 7.264015078544616699e-02
-3.540731668472290039e-01 1.145607382059097290e-01 -2.435791939496994019e-01 -1.472928524017333984e-01 -2.772836387157440186e-01 -1.553388386964797974e-01 2.275827080011367798e-01 2.330153584480285645e-01 3.478671014308929443e-01 1.514529585838317871e-01 -3.483291566371917725e-01 5.956614855676889420e-03 2.560253441333770752e-02 2.367125898599624634e-01 -2.969673573970794678e-01
1.503579020500183105e-01 -4.918230175971984863e-01 4.358550012111663818e-01 -2.356929779052734375e-01 2.753871977329254150e-01 -1.594310551881790161e-01 4.981457069516181946e-02 2.734965682029724121e-01 -4.225271642208099365e-01 -4.459220543503761292e-02 -2.820897102355957031e-02 -2.416305243968963623e-01 2.700435817241668701e-01 -1.802605390548706055e-01 -3.666337132453918457e-01
3.281171619892120361e-01 -1.843167543411254883e-01 1.238831207156181335e-01 -1.405577361583709717e-01 3.023681938648223877e-01 -3.646052181720733643e-01 1.165964603424072266e-01 1.000096648931503296e-01 -3.791505694389343262e-01 -2.400719672441482544e-01 3.260980546474456787e-01 3.758392035961151123e-01 3.140070140361785889e-01 1.620398759841918945e-01 4.604381918907165527e-01
-4.144866168498992920e-01 4.874149709939956665e-02 -4.638307690620422363e-01 2.696610987186431885e-01 -5.090653896331787109e-02 -2.791931033134460449e-01 -1.456554979085922241e-01 3.319437801837921143e-01 -2.462512999773025513e-01 -4.383704811334609985e-02 -2.313571870326995850e-01 1.559096872806549072e-01 2.853344380855560303e-01 -1.950189769268035889e-01 2.908162474632263184e-01
-1.726302057504653931e-01 1.770197749137878418e-01 -1.185216456651687622e-01 1.562709361314773560e-01 -1.083599776029586792e-02 7.040991634130477905e-02 1.867007911205291748e-01 2.745015323162078857e-01 -2.365139275789260864e-01 3.843692243099212646e-01 2.276702672243118286e-01 -8.494562655687332153e-02 -2.439942955970764160e-01 -1.885312795639038086e-01 4.759056866168975830e-01
1.001311168074607849e-01 -1.078761070966720581e-01 6.244559586048126221e-02 -2.602967321872711182e-01 3.391917049884796143e-01 4.679940640926361084e-01 3.413974344730377197e-01 -4.320855140686035156e-01 6.860583275556564331e-02 -1.934206187725067139e-01 1.824432313442230225e-01 -1.045112907886505127e-01 -1.827966272830963135e-01 -3.324740827083587646e-01 -2.518724203109741211e-01
1.242072209715843201e-01 -3.315483629703521729e-01 -3.773170337080955505e-02 1.284392923116683960e-01 1.843758821487426758e-01 -2.225795686244964600e-01 -4.378791153430938721e-01 1.431785374879837036e-01 -4.836107194423675537e-01 -3.530701398849487305e-01 3.826700747013092041e-01 -3.731403350830078125e-01 1.351067721843719482e-01 2.488387972116470337e-01 1.656100004911422729e-01
-3.608421683311462402e-01 -1.608097366988658905e-02 3.430238068103790283e-01 9.318616241216659546e-02 1.971265971660614014e-01 -1.266057193279266357e-01 7.910334318876266479e-02 -2.581341266632080078e-01 9.730831719934940338e-03 -1.480252146720886230e-01 2.216217368841171265e-01 -7.273567467927932739e-02 -2.860586531460285187e-02 3.569023013114929199e-01 2.517106533050537109e-01 5.207482725381851196e-02 -6.425736006349325180e-03 3.172782063484191895e-01 3.958604112267494202e-02 -8.818227797746658325e-02 -1.248817443847656250e-01 -2.892942726612091064e-01 3.788719475269317627e-01 -3.440206944942474365e-01 1.045509874820709229e-01 1.516652256250381470e-01 -5.232973489910364151e-03 1.249834373593330383e-01 -2.366206496953964233e-01 1.725246459245681763e-01
3.056201338768005371e-01 1.614653766155242920e-01 -2.021433860063552856e-01 2.040498703718185425e-01 2.201730310916900635e-01 -3.020970225334167480e-01 -1.801554560661315918e-01 -2.092539370059967041e-01 1.743122339248657227e-01 -2.225639522075653076e-01 1.666930317878723145e-01 2.894591391086578369e-01 -6.162114907056093216e-03 2.196870297193527222e-01 1.709694564342498779e-01 1.604184061288833618e-01 1.848995834589004517e-01 2.828972935676574707e-01 2.730307579040527344e-01 -3.382242619991302490e-01 -1.379593759775161743e-01 -5.521712079644203186e-02 3.810595273971557617e-01 -2.360793650150299072e-01 1.351528801023960114e-02 8.851426094770431519e-02 -2.667250931262969971e-01 4.868185892701148987e-02 -1.360515207052230835e-01 5.494632199406623840e-02
4.827943453154904814e-29 4.824605274893484875e-29 4.823837009401606654e-29 4.823646823819598415e-29 -4.899433972690559009e-29 4.831746562941961984e-29 -4.834155480005215081e-29 4.823979046735005213e-29 -4.848480486746256579e-29 -4.865682351341726511e-29 4.882631437631995618e-29 -4.847168747898196585e-29 -4.829305446737451162e-29 4.848266227039943499e-29 -4.825152359368312374e-29 -4.895553524779172539e-29 4.903480231133095067e-29 4.577603555819606635e-29 -4.872123985152594194e-29 -4.873744474644863766e-29 4.877424204544858629e-29 4.835318862062246496e-29 4.844100500755544670e-29 -4.855529992195821483e-29 -4.849191576192910804e-29 4.892965857342956001e-29 -4.825689513266864127e-29 4.827858591866730251e-29 4.906852113168541782e-29 -4.901442356510690323e-29
4.858811596265125047e-29 -4.900240154928217353e-29 4.885046072299771115e-29 4.877599644725730154e-29 4.870181203321193570e-29 4.868905274733037026e-29 -4.883899542129753089e-29 4.812506823724087308e-29 4.854033785370275650e-29 -4.891884026382007234e-29 4.857572681643087195e-29 -4.834046243666181867e-29 -4.873989428859665518e-29 4.847805207559505805e-29 4.846498584462860589e-29 4.874526883684771081e-29 4.867755434370927084e-29 -4.864268598391924756e-29 4.902813377889850987e-29 4.890741408257188744e-29 4.846813353638146378e-29 4.721141008088910650e-29 -4.901148652194171270e-29 4.831987605111564199e-29 4.872070119299462113e-29 4.810705477372977621e-29 4.847415808598875010e-29 4.897865543492098654e-29 -4.843217883173218457e-29 4.875505797764316656e-29
6.502742320299148560e-02 -2.911123037338256836e-01 1.013647913932800293e-01 1.158967837691307068e-01 -1.772003471851348877e-01 -2.444577366113662720e-01 2.835255563259124756e-01 -6.956979632377624512e-02 -3.929086327552795410e-01 -1.451057009398937225e-02 1.879130303859710693e-01 3.227925300598144531e-01 2.815018296241760254e-01 2.235499024391174316e-01 -1.466160863637924194e-01 -2.385302931070327759e-01 -2.348653823137283325e-01 2.001084387302398682e-01 -1.649655401706695557e-01 2.496058642864227295e-01 -5.513673648238182068e-03 -6.810014694929122925e-02 8.498012274503707886e-02 4.008377492427825928e-01 3.493428230285644531e-02 -2.087506353855133057e-01 5.758146569132804871e-02 -2.161674052476882935e-01 2.098267376422882080e-01 7.246749009937047958e-03
-1.532978657633066177e-02 -3.426991775631904602e-02 -2.775379829108715057e-02 -2.886487841606140137e-01 6.134051084518432617e-02 1.203134059906005859e-01 2.489257305860519409e-01 -1.592575460672378540e-01 2.954107224941253662e-01 3.608094453811645508e-01 7.626160234212875366e-02 -1.884704977273941040e-01 -7.863039523363113403e-02 -8.818268030881881714e-02 -2.915019690990447998e-01 -1.154446974396705627e-01 4.518604576587677002e-01 -1.264602988958358765e-01 -1.514195352792739868e-01 7.850124686956405640e-02 -4.225900173187255859e-01 -1.236029714345932007e-01 3.466358780860900879e-01 2.733618617057800293e-01 3.686720132827758789e-01 1.680997610092163086e-01 -1.685123592615127563e-01 2.949643433094024658e-01 7.842308282852172852e-02 2.522310316562652588e-01
-9.185818582773208618e-02 3.555519739165902138e-03 -5.025249719619750977e-02 -1.458950247615575790e-02 6.403524875640869141e-01 2.427251935005187988e-01 1.129987239837646484e-01 1.117906197905540466e-01 1.618993133306503296e-01 7.503991574048995972e-02 2.041448093950748444e-02 -9.235949814319610596e-02 -1.770266294479370117e-01 -2.176908552646636963e-01 -2.747623063623905182e-02 -3.919599056243896484e-01 4.078171253204345703e-01 2.925605177879333496e-01 1.879581511020660400e-01 -1.187531650066375732e-01 -1.448645889759063721e-01 2.809867262840270996e-01 2.863411903381347656e-01 -1.244339793920516968e-01 2.120143622159957886e-01 1.253627538681030273e-01 -1.964160203933715820e-01 -2.910829894244670868e-02 1.593877524137496948e-01 -3.178505003452301025e-01
-1.943080723285675049e-01 -1.085063070058822632e-01 2.630796134471893311e-01 -1.384626030921936035e-01 2.174343168735504150e-02 -6.989590357989072800e-03 -1.229625046253204346e-01 -1.823909133672714233e-01 4.408346861600875854e-02 2.131692171096801758e-01 -3.326497077941894531e-01 -3.405140340328216553e-01 3.998157102614641190e-03 -7.870251685380935669e-02 3.563747406005859375e-01 1.810459941625595093e-01 -2.229345291852951050e-01 2.214771658182144165e-01 2.283194065093994141e-01 -4.898219555616378784e-02 1.048905923962593079e-01 2.225275933742523193e-01 -1.228839159011840820e-01 -1.462229341268539429e-01 -1.507990956306457520e-01 2.340647727251052856e-01 8.128530383110046387e-01 -2.845205664634704590e-01 -1.310511231422424316e-01 1.534697413444519043e-01
-4.838426229656893777e-29 -4.884999729610484297e-29 4.894033544755875675e-29 -4.829744197652906879e-29 -4.893340811829003891e-29 -4.839529426403163090e-29 -4.862606881961783144e-29 -4.897587487356377746e-29 4.898847466837182333e-29 4.844847400462102345e-29 -4.880298354060302768e-29 4.825745786532426691e-29 4.848116365616145867e-29 -4.883424078174732490e-29 -4.829824244116220474e-29 4.878173511663846788e-29 4.852224013075659269e-29 4.825049141560355371e-29 -4.826295579346238485e-29 -4.840459289454437552e-29 4.877678788409382317e-29 -4.881780718264373319e-29 -4.874853990848763101e-29 4.849053751831265592e-29 4.892179235331295340e-29 4.877850918398161926e-29 -4.835496107802440883e-29 -4.880399465382383098e-29 4.856683443676577151e-29 -4.845778768146145860e-29
-1.076251715421676636e-01 9.436774998903274536e-02 1.249057985842227936e-02 -8.021943271160125732e-02 2.126265168190002441e-01 -4.088932648301124573e-02 -6.243772432208061218e-02 -1.070552226155996323e-02 3.720815777778625488e-01 2.570925354957580566e-01 1.994802951812744141e-01 -8.848971128463745117e-02 -2.926801331341266632e-02 1.901765763759613037e-01 4.006743729114532471e-01 3.402951061725616455e-01 -1.383186504244804382e-02 -3.200755417346954346e-01 8.454781025648117065e-02 1.572518423199653625e-02 -2.301396280527114868e-01 -1.469780653715133667e-01 2.007391154766082764e-01 -3.299001157283782959e-01 -2.614676356315612793e-01 2.134279310703277588e-01 8.436777442693710327e-02 -1.359076052904129028e-01 1.347641944885253906e-01 1.244026497006416321e-01
3.803209066390991211e-01 1.790754683315753937e-02 -1.666938811540603638e-01 2.646297216415405273e-01 2.792849391698837280e-02 7.242073118686676025e-02 -2.447727508842945099e-02 2.764534950256347656e-01 2.788310348987579346e-01 -1.255757808685302734e-01 6.372356414794921875e-02 1.358294934034347534e-01 8.691845834255218506e-02 -3.134682029485702515e-02 -5.248346179723739624e-02 -2.847139537334442139e-01 3.355642855167388916e-01 -6.698436290025711060e-02 1.160354986786842346e-01 -1.761102378368377686e-01 -6.952282041311264038e-02 -1.530792117118835449e-01 -1.557535529136657715e-01 -3.404272720217704773e-02 2.845952510833740234e-01 2.289984524250030518e-01 -2.003742568194866180e-02 -4.359287768602371216e-02 -1.064380109310150146e-01 2.265886962413787842e-01
9.273643046617507935e-02 -9.629020839929580688e-02 5.769980326294898987e-02 -1.767758578062057495e-01 -2.167670428752899170e-01 1.663160771131515503e-01 9.501022286713123322e-04 2.925854027271270752e-01 2.354989647865295410e-01 1.615274399518966675e-01 4.364434164017438889e-03 1.527803689241409302e-01 3.877343237400054932e-01 2.711166441440582275e-01 -4.828099161386489868e-02 1.000004112720489502e-01 1.308228075504302979e-01 -9.075031429529190063e-02 -6.798105686902999878e-02 8.568281680345535278e-02 -1.311544179916381836e-01 1.873727589845657349e-01 2.036821097135543823e-01 -4.135475456714630127e-01 4.129309356212615967e-01 -1.226546168327331543e-01 -3.272351622581481934e-01 -3.900509178638458252e-01 -1.111617758870124817e-01 -1.667779237031936646e-01
-2.431806474924087524e-01 -3.025163412094116211e-01 4.830673336982727051e-02 -3.092976212501525879e-01 -4.859715327620506287e-02 2.540346086025238037e-01 -2.705118358135223389e-01 1.672820150852203369e-01 -3.160490989685058594e-01 3.394050896167755127e-01 1.931934058666229248e-01 -3.492501974105834961e-01 2.422103881835937500e-01 1.768375486135482788e-01 1.942039579153060913e-01 4.879507236182689667e-03 -1.281361728906631470e-01 2.851983308792114258e-01 -2.706972062587738037e-01 -1.817769110202789307e-01 2.423630803823471069e-01 3.248012065887451172e-01 2.295320332050323486e-01 -3.611626029014587402e-01 -1.555230915546417236e-01 9.774411469697952271e-02 -6.542296707630157471e-02 2.865487337112426758e-01 -1.152038872241973877e-01 -3.369959294795989990e-01
-2.524421215057373047e-01 2.092333287000656128e-01 -3.406689688563346863e-02 3.188916742801666260e-01 1.888313293457031250e-01 -4.388844370841979980e-01 -1.186584755778312683e-01 1.127223148941993713e-01 1.875964552164077759e-02 -2.842537313699722290e-02 -2.824781239032745361e-01 -1.096218898892402649e-01 2.390251606702804565e-01 1.727058887481689453e-01 2.174143940210342407e-01 2.198711223900318146e-02 -4.963536188006401062e-02 -4.326617419719696045e-01 -1.330718584358692169e-02 -2.438030540943145752e-01 -1.835810095071792603e-01 4.149772971868515015e-02 1.587977707386016846e-01 2.430838719010353088e-02 6.013572588562965393e-02 -3.636562824249267578e-01 -2.469098269939422607e-01 2.216628640890121460e-01 -4.356605932116508484e-02 1.587421000003814697e-01
4.855508626410500938e-29 4.828762876160930821e-29 -4.901980112262349697e-29 4.871082177423302223e-29 4.851985077391933727e-29 4.882438543711003084e-29 4.858644882954314027e-29 4.876180475097959809e-29 -4.865018507364020536e-29 -4.876235544657307132e-29 -4.864919803454370690e-29 4.887202511984377198e-29 4.856511915540905163e-29 -4.825115345402193682e-29 -4.890434463172302028e-29 -4.850084124351512764e-29 -4.843088183828526129e-29 4.848125694339313993e-29 4.831698113766798492e-29 4.835222264638473323e-29 4.847281294429321714e-29 4.848805186497818115e-29 -4.842685845026081483e-29 4.871288011186108609e-29 -4.843631356258154092e-29 -4.827660582194322939e-29 4.867521012585508700e-29 -4.870316921196962108e-29 -4.829777299573826035e-29 -4.863410656787011004e-29
-9.717310965061187744e-02 -7.424617558717727661e-02 6.549730896949768066e-03 -4.430058877915143967e-03 -8.645704388618469238e-02 -3.217669725418090820e-01 2.523603141307830811e-01 -1.617790572345256805e-02 2.984242979437112808e-03 -2.880784571170806885e-01 8.929464966058731079e-02 -4.602491855621337891e-02 2.007665932178497314e-01 9.185142815113067627e-02 4.455500282347202301e-03
1.394140720367431641e-01 -4.530685544013977051e-01 -3.582173883914947510e-01 1.475501358509063721e-01 3.066661059856414795e-01 -2.931586503982543945e-01 -3.161548674106597900e-01 3.862295448780059814e-01 -2.198218852281570435e-01 2.361704260110855103e-01 -2.358417510986328125e-01 3.981869376730173826e-04 -2.568333037197589874e-02 1.944772899150848389e-01 -2.255962044000625610e-01
-3.435909450054168701e-01 -1.363016515970230103e-01 -2.850890755653381348e-01 9.658265113830566406e-02 -9.090888500213623047e-02 2.783618569374084473e-01 3.583230376243591309e-01 2.836388945579528809e-01 -2.115835249423980713e-02 -2.741082608699798584e-01 -6.429057568311691284e-02 -1.891600489616394043e-01 3.615289926528930664e-01 3.504746258258819580e-01 -2.449246644973754883e-01
-3.687905520200729370e-02 -1.156062632799148560e-01 -1.718552708625793457e-01 -3.025755845010280609e-02 -1.758722066879272461e-01 1.107963547110557556e-01 1.369847264140844345e-02 -6.006084010004997253e-02 1.596596986055374146e-01 1.254167258739471436e-01 5.874268412590026855e-01 1.016232520341873169e-01 -3.653110861778259277e-01 -2.954217791557312012e-02 3.302328586578369141e-01
1.498011220246553421e-02 -2.836020290851593018e-01 3.467669785022735596e-01 -1.820782572031021118e-01 1.263427920639514923e-02 -3.768152594566345215e-01 -5.723547339439392090e-01 -6.965764164924621582e-01 1.324046850204467773e-01 -2.859508395195007324e-01 9.834039956331253052e-02 -1.447428315877914429e-01 1.857009083032608032e-01 -5.500559881329536438e-02 2.605083882808685303e-01
4.258711338043212891e-01 -1.379417926073074341e-01 -1.093548014760017395e-01 7.518325001001358032e-02 -2.995400726795196533e-01 -3.777970969676971436e-01 1.088410690426826477e-01 -8.848465234041213989e-02 -5.593821778893470764e-02 9.327480196952819824e-02 -3.253336548805236816e-01 2.510235607624053955e-01 -6.053911522030830383e-02 -3.521407246589660645e-01 -9.738472104072570801e-02
2.098131030797958374e-01 -2.982114851474761963e-01 -9.694884531199932098e-03 3.892431408166885376e-02 3.805896639823913574e-01 -1.280851364135742188e-01 4.390099942684173584e-01 -3.828566670417785645e-01 -2.377612143754959106e-02 2.043489962816238403e-01 3.347118617966771126e-03 2.758691608905792236e-01 1.008595824241638184e-01 5.474006291478872299e-03 -3.168747946619987488e-02
6.096682697534561157e-02 6.252706050872802734e-02 -2.923625893890857697e-02 1.214369386434555054e-02 2.258002758026123047e-01 2.881121635437011719e-01 3.558098152279853821e-02 -1.007951609790325165e-02 -1.153498701751232147e-02 -1.503361612558364868e-01 -2.610471248626708984e-01 -7.912293076515197754e-01 -2.462799549102783203e-01 3.623716905713081360e-02 2.790795266628265381e-02
3.324450850486755371e-01 2.741604447364807129e-01 -9.787140414118766785e-03 4.002157133072614670e-03 -2.227934300899505615e-01 1.239981576800346375e-01 -1.810811161994934082e-01 9.224253892898559570e-02 -1.454092445783317089e-03 -1.202354021370410919e-02 -1.835587173700332642e-01 -3.903113007545471191e-01 -2.634298205375671387e-01 -4.018015861511230469e-01 -4.989400040358304977e-03
3.863850235939025879e-01 -4.999483227729797363e-01 -2.880309894680976868e-02 4.529026523232460022e-02 2.091331332921981812e-01 -2.533086240291595459e-01 -3.479145169258117676e-01 1.887403875589370728e-01 2.160269394516944885e-02 3.785663843154907227e-01 -1.494133323431015015e-01 -1.708328574895858765e-01 -7.395206391811370850e-02 -1.655045896768569946e-02 4.209618270397186279e-01
2.811008598655462265e-03 -2.563515007495880127e-01 -2.325540222227573395e-02 2.250292897224426270e-02 1.283293813467025757e-01 2.002303451299667358e-01 -2.966093719005584717e-01 1.235692948102951050e-01 -1.956603303551673889e-02 -1.111158505082130432e-01 1.576988697052001953e-01 -7.535330951213836670e-02 2.419098764657974243e-01 4.529143124818801880e-02 -2.203401550650596619e-02
1.770362555980682373e-01 -3.046720325946807861e-01 -4.267645254731178284e-02 -7.245148718357086182e-02 2.385693341493606567e-01 4.983763098716735840e-01 1.035834997892379761e-01 -1.229604054242372513e-02 -5.862637981772422791e-02 -1.219935417175292969e-01 -3.899621590971946716e-02 -1.166001036763191223e-01 2.551960051059722900e-01 2.769770026206970215e-01 -1.979270428419113159e-01
-2.087281048297882080e-01 -1.397486589848995209e-02 -1.678291112184524536e-01 1.722388863563537598e-01 -1.485219784080982208e-02 3.793120384216308594e-01 4.593272805213928223e-01 -7.246284931898117065e-02 -1.383148133754730225e-01 3.503023982048034668e-01 1.706364750862121582e-01 3.866879343986511230e-01 -2.730135917663574219e-01 3.943555951118469238e-01 -1.048000529408454895e-01
-1.841990798711776733e-01 -3.499089479446411133e-01 -6.347667425870895386e-02 7.751541584730148315e-02 4.178364574909210205e-01 -7.232460379600524902e-02 2.760868370532989502e-01 2.290049381554126740e-02 3.074108436703681946e-02 1.675439183600246906e-03 -1.781265437602996826e-01 -3.243934512138366699e-01 -1.346137225627899170e-01 -2.779499441385269165e-02 -2.784047722816467285e-01
-3.217193484306335449e-01 -7.898208498954772949e-02 1.354672908782958984e-01 -1.496142504038289189e-04 6.897772103548049927e-02 6.133857741951942444e-02 4.536440968513488770e-01 7.773378491401672363e-02 1.289767120033502579e-02 -2.094676494598388672e-01 2.328951954841613770e-01 -6.399780977517366409e-03 -3.728714287281036377e-01 -5.907038226723670959e-02 -5.959286913275718689e-02
2.696615643799304962e-02 -1.795698404312133789e-01 -2.984133958816528320e-01 -1.708720326423645020e-01 4.872011840343475342e-01 -2.019475251436233521e-01 1.924062520265579224e-01 -4.648556709289550781e-01 -1.300457864999771118e-01 -3.025524318218231201e-01 1.523593515157699585e-01 3.520289435982704163e-02 -3.781806826591491699e-01 3.915500342845916748e-01 -2.784799635410308838e-01
-9.519020467996597290e-02 -6.095928698778152466e-02 2.615473866462707520e-01 -3.271496668457984924e-02 -8.571688830852508545e-02 -3.746796250343322754e-01 -1.824489049613475800e-02 4.928295314311981201e-02 -6.656143814325332642e-02 -2.097870223224163055e-02 3.220178186893463135e-01 3.606540858745574951e-01 -9.008489549160003662e-02 4.291237890720367432e-01 -1.174334883689880371e-01
-1.782197058200836182e-01 1.917287148535251617e-02 -5.768055841326713562e-02 -3.989680111408233643e-01 3.216203749179840088e-01 3.805253803730010986e-01 3.628138601779937744e-01 -1.300317943096160889e-01 -3.770922422409057617e-01 -2.999737262725830078e-01 6.521051377058029175e-02 3.369442522525787354e-01 3.099087253212928772e-02 2.265196293592453003e-03 1.791500002145767212e-01
-2.571185529232025146e-01 -3.564675450325012207e-01 2.906560599803924561e-01 -2.456935495138168335e-01 -1.433952897787094116e-01 -3.572863042354583740e-01 -1.344721615314483643e-01 -5.098873972892761230e-01 -1.388233602046966553e-01 1.720482558012008667e-01 -2.447745203971862793e-01 -2.242678701877593994e-01 3.734357953071594238e-01 6.633714586496353149e-02 -3.164900243282318115e-01
8.607089519500732422e-02 -3.967351615428924561e-01 4.733479321002960205e-01 -2.270989120006561279e-01 2.944589592516422272e-02 -5.655000209808349609e-01 1.157067343592643738e-01 6.075232103466987610e-02 -2.680895924568176270e-01 -3.378506898880004883e-01 4.067184925079345703e-01 -3.027812540531158447e-01 4.244748950004577637e-01 4.502943456172943115e-01 4.456393793225288391e-02
-4.411573708057403564e-02 -1.062837615609169006e-01 -2.148751020431518555e-01 -2.862772643566131592e-01 9.227131307125091553e-02 -3.842291831970214844e-01 2.351466007530689240e-02 -7.275360822677612305e-02 -5.970164760947227478e-02 2.046938836574554443e-01 -1.207752525806427002e-01 -3.711328804492950439e-01 3.070606887340545654e-01 -3.520885705947875977e-01 -3.669641017913818359e-01
3.487178310751914978e-02 2.115693241357803345e-01 -1.298081427812576294e-01 -2.177973538637161255e-01 -5.976076722145080566e-01 -2.894199788570404053e-01 -6.008758023381233215e-02 -1.533035039901733398e-01 7.518828660249710083e-02 -5.477421283721923828e-01 -3.333441019058227539e-01 8.634532243013381958e-02 4.326788485050201416e-01 7.241773605346679688e-02 -2.094831317663192749e-02
4.518130794167518616e-02 -1.339129656553268433e-01 2.691766321659088135e-01 1.146559566259384155e-01 -4.297448396682739258e-01 2.838922441005706787e-01 -1.480016559362411499e-01 1.181627810001373291e-01 2.797372341156005859e-01 -1.787229999899864197e-02 -1.675107479095458984e-01 2.028566598892211914e-02 -3.098955154418945312e-01 -3.078063428401947021e-01 2.659421861171722412e-01
3.143192827701568604e-02 1.687097698450088501e-01 1.977127790451049805e-02 -1.320366654545068741e-02 -3.122933506965637207e-01 1.361533254384994507e-02 -1.286785751581192017e-01 -2.614922523498535156e-01 6.837627291679382324e-02 -1.365522015839815140e-02 -8.051220327615737915e-02 -4.662555754184722900e-01 -1.442238092422485352e-01 -2.265356928110122681e-01 -2.480464130640029907e-01
7.442484050989151001e-02 2.790728807449340820e-01 3.871278464794158936e-02 -2.766810357570648193e-01 8.624815195798873901e-02 6.029820442199707031e-02 1.068830257281661034e-03 2.307033091783523560e-01 2.314327470958232880e-02 4.046722352504730225e-01 -2.009959667921066284e-01 -4.168250560760498047e-01 -2.729880213737487793e-01 -3.408718407154083252e-01 2.822422683238983154e-01
-7.077914476394653320e-02 4.541702866554260254e-01 3.337493538856506348e-01 -7.471628189086914062e-01 5.013397336006164551e-02 -2.862741649150848389e-01 1.073240023106336594e-02 3.302495926618576050e-02 3.379040062427520752e-01 5.541984438896179199e-01 -1.907683759927749634e-01 -4.202537238597869873e-01 3.330101817846298218e-02 1.467700153589248657e-01 -9.020852297544479370e-02
-1.976684480905532837e-01 -2.218622118234634399e-01 3.323667049407958984e-01 -1.637640744447708130e-01 3.234048783779144287e-01 2.282606661319732666e-01 1.852830871939659119e-02 -1.021130084991455078e-01 -8.704388886690139771e-02 2.771926522254943848e-01 -2.471443116664886475e-01 1.578388363122940063e-01 2.150586396455764771e-01 -3.121089935302734375e-02 -1.519288402050733566e-02
-2.869219779968261719e-01 -3.518756330013275146e-01 -4.678465425968170166e-01 2.935789823532104492e-01 -2.736253440380096436e-01 3.503648936748504639e-01 -9.825342148542404175e-02 -2.873777151107788086e-01 -3.104615211486816406e-01 3.579493165016174316e-01 -8.766332268714904785e-02 -9.124975651502609253e-02 -1.710368841886520386e-01 2.443473339080810547e-01 -2.280129492282867432e-01
-2.147740721702575684e-01 3.795566260814666748e-01 4.099703431129455566e-01 4.268131852149963379e-01 3.311695158481597900e-01 8.300890028476715088e-02 2.701711142435669899e-03 -5.794973298907279968e-02 9.244676679372787476e-03 1.095967143774032593e-01 2.430477887392044067e-01 -1.149291023612022400e-01 -1.930895894765853882e-01 2.186742871999740601e-01 -3.753186762332916260e-01
1.757099926471710205e-01 6.984142586588859558e-03 1.515541039407253265e-02 -7.094333320856094360e-02 -7.135729193687438965e-01 -1.025718897581100464e-01 1.643692851066589355e-01 -3.037349134683609009e-02 2.217345088720321655e-01 1.916995495557785034e-01 3.420200347900390625e-01 -2.252312609925866127e-03 2.717532813549041748e-01 -1.978782117366790771e-01 -5.276120305061340332e-01
-3.318715095520019531e-01 -4.108697175979614258e-01 -3.291151821613311768e-01 4.506536722183227539e-01 3.724284768104553223e-01 -6.131144165992736816e-01 -5.797279477119445801e-01 -2.935346066951751709e-01 1.233197376132011414e-01 -3.027056157588958740e-01 -1.970134228467941284e-01 4.238615334033966064e-01 4.353330135345458984e-01 4.865469634532928467e-01 -2.778459787368774414e-01
-2.241421937942504883e-01 4.702588170766830444e-02 1.896777153015136719e-01 -6.824071705341339111e-02 -1.034898236393928528e-01 1.784324944019317627e-01 -2.520687580108642578e-01 1.028521060943603516e-01 -1.899442449212074280e-02 3.571123778820037842e-01 -2.712954580783843994e-01 -3.390241563320159912e-01 -1.997650973498821259e-02 1.276459097862243652e-01 -2.036979198455810547e-01 -2.069433927536010742e-01 -1.966168917715549469e-02 -1.633665338158607483e-02 2.362464815378189087e-01 -3.461598977446556091e-02 2.271127849817276001e-01 1.305373758077621460e-01 -2.079792320728302002e-01 -8.187086135149002075e-02 2.835735864937305450e-02 1.943294554948806763e-01 2.033516913652420044e-01 -9.281338006258010864e-02 1.232054308056831360e-01 -3.246759995818138123e-02
-1.078604087233543396e-01 2.580154538154602051e-01 3.212438225746154785e-01 1.167983934283256531e-01 1.197901889681816101e-01 1.374242901802062988e-01 -7.888321578502655029e-02 1.075300276279449463e-01 -2.563275098800659180e-01 4.823744297027587891e-02 1.247628256678581238e-01 2.923721075057983398e-01 -5.273150280117988586e-02 1.416470855474472046e-01 -7.299696654081344604e-02 -1.002731621265411377e-01 3.383725285530090332e-01 1.054356098175048828e-01 -2.227557897567749023e-01 1.361473649740219116e-01 -2.788611948490142822e-01 -1.805827617645263672e-01 -2.394214272499084473e-01 4.955156147480010986e-02 -1.380998045206069946e-01 -3.137592375278472900e-01 6.605747342109680176e-02 -2.615745961666107178e-01 3.154731392860412598e-01 -3.332920372486114502e-01
-1.118646934628486633e-01 -6.050179526209831238e-02 -1.346028149127960205e-01 3.341172337532043457e-01 2.560121715068817139e-01 -3.626549988985061646e-02 -1.743192039430141449e-02 -3.173532187938690186e-01 -3.024264574050903320e-01 2.188093066215515137e-01 3.240939676761627197e-01 1.930831819772720337e-01 1.838916093111038208e-01 -1.012477204203605652e-01 2.016022205352783203e-01 1.175964325666427612e-01 -3.131663203239440918e-01 2.647624015808105469e-01 1.951192766427993774e-01 2.647485733032226562e-01 3.114453256130218506e-01 2.486989498138427734e-01 -8.380942977964878082e-03 -5.744703859090805054e-02 5.066101998090744019e-02 1.203943938016891479e-01 -3.522103726863861084e-01 1.741631072945892811e-03 1.869231648743152618e-02 3.879847228527069092e-01
-4.888200083510259024e-29 4.821960431412044341e-29 -4.865163553962957199e-29 -4.840275724256613144e-29 -4.897409338836521927e-29 -4.866608001421247626e-29 4.880530669359844478e-29 -4.895388015174576761e-29 4.877468139821714963e-29 4.830581074399053895e-29 -4.895487320937334228e-29 -4.888693302131954443e-29 4.867489415297358597e-29 4.851486442092269720e-29 -4.906413362253086065e-29 4.825973287007107434e-29 -4.837640510424894546e-29 -4.887270521385538372e-29 -4.851448525346489596e-29 4.898298576803031971e-29 -4.902147427426268338e-29 4.878427794601816665e-29 -4.868021754371049381e-29 4.893220140280925879e-29 4.899457144035202418e-29 4.871928382892617365e-29 4.861321624650458474e-29 -4.846609325434662855e-29 -4.903853680986373904e-29 -4.879103073788567440e-29
1.708409637212753296e-01 -1.152317672967910767e-01 3.196129798889160156e-01 2.322804331779479980e-01 5.420099496841430664e-01 6.223559007048606873e-02 -1.661459505558013916e-01 -1.221062093973159790e-01 3.268484771251678467e-01 -3.723503053188323975e-01 6.685328204184770584e-03 1.029276400804519653e-01 3.748319745063781738e-01 3.163931369781494141e-01 2.147297114133834839e-01 -9.671180695295333862e-02 -5.424905940890312195e-02 2.937246561050415039e-01 -3.592658415436744690e-02 3.060183525085449219e-01 2.728829383850097656e-01 2.339849062263965607e-02 3.214639127254486084e-01 -2.337740957736968994e-01 -2.480441033840179443e-01 -3.791117966175079346e-01 1.326097548007965088e-01 2.680194079875946045e-01 -3.100721724331378937e-02 -7.299464195966720581e-02
4.837649538221508862e-29 -4.837013680413307263e-29 -4.826349144272816755e-29 -4.849075719469693759e-29 -4.883389170694490471e-29 4.854749689641790842e-29 4.870025925219427349e-29 -4.877320083957240194e-29 4.830656907890614143e-29 4.893322455309221450e-29 -4.903853680986373904e-29 -4.867657332314384859e-29 -4.904238265122143731e-29 -4.903803125325333740e-29 4.823767194441122617e-29 -4.828785746579020419e-29 -4.840835447646700684e-29 -4.894625166360667129e-29 4.838386206425236979e-29 -4.824535159006447027e-29 -4.846946363174930622e-29 4.831830521450475115e-29 4.907507832129294874e-29 4.823647425672706036e-29 -4.868239324269454377e-29 4.904066736986471742e-29 -4.904327941235179261e-29 4.904745326365314433e-29 -4.885719245000645216e-29 -4.889088418697107637e-29
1.633398085832595825e-01 -2.664087116718292236e-01 -2.408225089311599731e-01 3.472284078598022461e-01 6.159401312470436096e-02 -5.561015754938125610e-02 -1.496383994817733765e-01 -2.813312113285064697e-01 -3.546970188617706299e-01 8.312461525201797485e-02 2.828740477561950684e-01 -2.717256546020507812e-01 -2.065074741840362549e-01 -2.222029268741607666e-01 1.171332076191902161e-01 -5.934463441371917725e-02 2.005485445261001587e-01 2.064184099435806274e-01 1.897548511624336243e-02 -6.544915377162396908e-04 -1.411166191101074219e-01 -2.286479175090789795e-01 -4.239427745342254639e-01 2.176616489887237549e-01 -2.926847338676452637e-01 8.012200891971588135e-02 -2.613988220691680908e-01 -3.474449366331100464e-02 -2.429504841566085815e-01 2.197289168834686279e-01
-4.861892181396483193e-29 -4.902725808262692130e-29 -4.869794211772993259e-29 -4.881730463529886964e-29 -4.884247413225958033e-29 -4.858682197846986530e-29 4.834631244886789490e-29 4.858028284445556301e-29 4.896925148011440824e-29 -4.898177303401846337e-29 -4.908246305892345855e-29 -4.824348885469638324e-29 4.835373630695040008e-29 4.832646935190963016e-29 -4.892925533184745394e-29 -4.840696118652286420e-29 -4.842575705907386838e-29 4.873736650554464693e-29 4.900020177617381874e-29 4.821960130485490531e-29 -4.867668466596875848e-29 -4.873596418780388998e-29 -4.837530070379646091e-29 4.844558811896998070e-29 4.900952749007640630e-29 -4.848578588802798804e-29 4.898618160803178728e-29 -4.857019277710629676e-29 -4.876412790397501520e-29 4.863832856742007143e-29
4.862306557261080259e-29 -4.852264638160423687e-29 4.839104819035736467e-29 4.676831980452744184e-29 4.893051019557684374e-29 -4.862526835498469549e-29 -4.899041263537836299e-29 -4.857108351970557585e-29 4.851836720600905148e-29 -4.845990620440028456e-29 4.733692654648346838e-29 -4.824449695865164844e-29 -4.902495599449027093e-29 -4.865949574121510240e-29 -4.846429672282037983e-29 4.834754624773851798e-29 -4.842189918065401770e-29 -4.846966224327482115e-29 -4.845357771897364963e-29 -4.884834220005888519e-29 -4.862141047656484481e-29 4.893779261817905798e-29 4.865176493804771051e-29 -4.897412949955167653e-29 4.857061708354716957e-29 4.831550358828877534e-29 4.833427538671547468e-29 4.784456556863748649e-29 -4.870658773762090842e-29 -4.856780943880011755e-29
4.884514335079187951e-29 -4.796228201795708007e-29 -4.832656564840684953e-29 -4.897555589141673833e-29 -4.899279898295008030e-29 4.892484374856859192e-29 4.839389495555641205e-29 4.906495214275722523e-29 -4.883506532050476568e-29 4.830940079777749829e-29 4.899865200442169463e-29 -4.898427674294616678e-29 -4.821611657536177965e-29 -4.831648460885419759e-29 4.903283425166902996e-29 -4.868994348992964936e-29 4.837708218899501910e-29 4.902940970748666641e-29 4.879599903528908584e-29 -4.822300177491296402e-29 4.825399119142436989e-29 -4.859786598299471085e-29 4.836927916345471269e-29 4.823850852023081938e-29 -4.861038753689876599e-29 4.892535833297560789e-29 -4.899492352441998247e-29 4.834537656728554423e-29 4.888696010470938737e-29 4.839771371352426737e-29
3.476454913616180420e-01 2.392314821481704712e-01 1.472025513648986816e-01 2.238618582487106323e-01 -3.485631644725799561e-01 -9.034814685583114624e-02 3.296625316143035889e-01 1.310452967882156372e-01 1.859765648841857910e-01 -2.005964368581771851e-01 -3.064955174922943115e-01 -3.559739589691162109e-01 2.338510751724243164e-01 -1.415523588657379150e-01 1.707425713539123535e-01 8.347583562135696411e-02 2.376673966646194458e-01 -1.735617071390151978e-01 -2.311731576919555664e-01 1.133224070072174072e-01 9.932784363627433777e-03 -3.245338797569274902e-01 -3.581183552742004395e-01 8.618100732564926147e-02 -6.162286549806594849e-02 1.453360766172409058e-01 1.331731826066970825e-01 3.594247996807098389e-01 -2.711970210075378418e-01 -9.647469222545623779e-02
-2.598339691758155823e-02 2.002538144588470459e-01 -9.533259272575378418e-02 -5.350808054208755493e-02 -9.072484076023101807e-02 -2.625611126422882080e-01 1.622613966464996338e-01 6.999099999666213989e-02 9.208580106496810913e-02 1.045977175235748291e-01 -3.674371838569641113e-01 2.060256153345108032e-01 -2.109151892364025116e-02 1.921770870685577393e-01 -3.353001773357391357e-01 -2.697269059717655182e-02 2.503502070903778076e-01 -1.611049473285675049e-01 2.425587028264999390e-01 2.175642102956771851e-01 9.936656057834625244e-02 -1.971997916698455811e-01 2.964705824851989746e-01 -1.886734515428543091e-01 1.965656578540802002e-01 -1.868801862001419067e-01 -2.541059255599975586e-01 -2.929919958114624023e-01 5.017998814582824707e-02 -2.237575352191925049e-01
3.834930062294006348e-01 -3.611778467893600464e-02 1.522099040448665619e-02 2.859639525413513184e-01 2.875626087188720703e-01 -1.857795938849449158e-02 4.105731546878814697e-01 -2.443475723266601562e-01 1.676468551158905029e-01 2.474813163280487061e-01 -1.596438884735107422e-02 5.936621129512786865e-02 2.198524922132492065e-01 -4.753039032220840454e-02 3.696485236287117004e-02 3.132044076919555664e-01 -2.665047943592071533e-01 -9.577608853578567505e-02 1.193806231021881104e-01 1.983113735914230347e-01 -1.254129260778427124e-01 -2.969650328159332275e-01 3.520295023918151855e-01 3.133003711700439453e-01 8.822022378444671631e-02 -2.164629101753234863e-01 -2.542598359286785126e-02 2.063232958316802979e-01 -1.881046146154403687e-01 -1.064434647560119629e-01
4.336678087711334229e-01 1.425037384033203125e-01 1.292311102151870728e-01 -1.062359288334846497e-01 -2.922081351280212402e-01 2.270483821630477905e-01 -5.231298878788948059e-02 -1.726520806550979614e-01 -2.209794372320175171e-01 3.045791387557983398e-01 2.709638476371765137e-01 2.897118031978607178e-01 2.198190540075302124e-01 -1.358668357133865356e-01 6.924019753932952881e-02 2.573364973068237305e-01 2.168423123657703400e-02 -2.853442132472991943e-01 -1.644677668809890747e-01 4.138860851526260376e-02 1.901669502258300781e-01 -2.955265045166015625e-01 -1.383804678916931152e-01 -1.135345026850700378e-01 2.574570477008819580e-01 -3.526287153363227844e-02 -1.517879068851470947e-01 -1.642663776874542236e-01 2.608768641948699951e-01 3.387680947780609131e-01
1.677616238594055176e-01 1.364896595478057861e-01 1.985519826412200928e-01 1.097114849835634232e-02 -5.493400245904922485e-02 -1.619203388690948486e-02 -1.542444974184036255e-01 -1.992287486791610718e-01 9.823961183428764343e-03 -1.655699908733367920e-01 1.295062452554702759e-01 -1.554374992847442627e-01 1.506414115428924561e-01 -1.235767919570207596e-02 1.331329904496669769e-02 3.268234804272651672e-02 1.123090647161006927e-02 -1.197228487581014633e-02 2.308762259781360626e-02 1.632505208253860474e-01 1.301984209567308426e-02 2.084413319826126099e-01 -1.546232849359512329e-01 -3.613429516553878784e-02 2.220206335186958313e-02 -1.808354556560516357e-01 1.494897622615098953e-02 -7.020720839500427246e-02 -8.395035564899444580e-02 -1.066135987639427185e-01
-2.231909185647964478e-01 -4.702367261052131653e-02 -3.771847784519195557e-01 4.776758551597595215e-01 2.220172882080078125e-01 2.673866401892155409e-04 -1.140897572040557861e-01 1.276189740747213364e-02 -1.150951087474822998e-01 -1.739444732666015625e-01 2.232001572847366333e-01 -1.979151070117950439e-01 3.429494202136993408e-01 -2.823258005082607269e-02 -1.238611415028572083e-01
-4.583734571933746338e-01 8.270900696516036987e-02 3.787684738636016846e-01 -1.670390218496322632e-01 1.709578186273574829e-01 1.071270322427153587e-03 5.720337139791809022e-05 2.260872870683670044e-01 -5.995077267289161682e-02 -6.682933866977691650e-02 -3.413724303245544434e-01 3.150819242000579834e-01 -2.166936695575714111e-01 2.611268162727355957e-01 4.482924640178680420e-01
-4.857489625914235496e-29 4.841775241274250893e-29 4.856743328060785442e-29 -4.866737700765939954e-29 -4.858891341801884831e-29 4.866677515455177853e-29 -4.823822264000469940e-29 -4.835728423101982594e-29 4.831337001902225886e-29 -4.908302579157908419e-29 -4.864103088787328978e-29 4.729288895459883899e-29 4.874901537244265161e-29 -4.890819047308071854e-29 4.822696196836111028e-29
-5.019947886466979980e-02 -4.171527326107025146e-01 -2.884764075279235840e-01 -1.857968606054782867e-02 -6.392804533243179321e-02 -7.982841634657233953e-05 -4.234766960144042969e-01 -1.296289358288049698e-02 1.936891302466392517e-02 2.040432393550872803e-02 -2.471791207790374756e-01 -2.637889385223388672e-01 -2.378842979669570923e-02 -1.956928521394729614e-01 -1.395679414272308350e-01
-3.188441693782806396e-01 2.327401377260684967e-02 3.967209458351135254e-01 8.098410815000534058e-02 -1.962653547525405884e-01 -1.537473508506081998e-05 2.947298586368560791e-01 4.777479544281959534e-02 -2.052316218614578247e-01 -5.716247856616973877e-02 -4.130491912364959717e-01 -3.138259351253509521e-01 3.823591768741607666e-01 -4.817023407667875290e-03 -3.270144388079643250e-02
-6.151631847023963928e-02 -3.793734610080718994e-01 -1.931816190481185913e-01 2.869351208209991455e-01 1.492648720741271973e-01 -7.573023322038352489e-04 -4.933127015829086304e-02 1.111028343439102173e-02 -2.477061301469802856e-01 -2.004944980144500732e-01 -3.432093262672424316e-01 3.695481717586517334e-01 -2.553719878196716309e-01 4.033763408660888672e-01 -3.332597613334655762e-01
-8.605304360389709473e-02 2.433563172817230225e-01 3.821173906326293945e-01 -7.454515993595123291e-02 -2.880302816629409790e-02 -9.579475154168903828e-04 -3.333155810832977295e-01 -3.595727682113647461e-02 1.029645502567291260e-01 1.374206542968750000e-01 3.968179225921630859e-01 9.147335588932037354e-02 -8.685702830553054810e-02 -2.931757271289825439e-01 5.607683956623077393e-02
-1.137020811438560486e-01 -8.735159039497375488e-02 -2.389683425426483154e-01 2.891593798995018005e-02 -4.977214932441711426e-01 -2.710250846575945616e-04 1.634965837001800537e-01 -2.142851985991001129e-02 -4.337872564792633057e-02 -1.151943355798721313e-01 1.678140275180339813e-02 -2.256218492984771729e-01 -2.366788871586322784e-02 -8.246284560300409794e-04 2.262183465063571930e-02
1.693131476640701294e-01 -2.929400205612182617e-01 2.707110047340393066e-01 1.075896322727203369e-01 1.674152463674545288e-01 -2.294621517648920417e-04 3.366535902023315430e-01 -1.161003671586513519e-02 1.303984969854354858e-01 -2.008367627859115601e-01 -3.780520260334014893e-01 -4.061028361320495605e-01 -2.728737592697143555e-01 2.209276705980300903e-01 -4.282595813274383545e-01
-3.192521929740905762e-01 -2.108144760131835938e-01 -1.651856750249862671e-01 1.212330255657434464e-02 3.046886920928955078e-01 4.962348612025380135e-04 -1.669159531593322754e-01 -1.740157417953014374e-02 1.025866419076919556e-01 -1.185756642371416092e-02 -1.819772571325302124e-01 -3.266769051551818848e-01 4.043796360492706299e-01 3.188204765319824219e-01 3.254031836986541748e-01
-1.931130737066268921e-01 -5.862324237823486328e-01 -1.607040762901306152e-01 1.459711939096450806e-01 1.831431090831756592e-01 -5.591523949988186359e-05 -2.138113528490066528e-01 6.554178148508071899e-02 -1.120651960372924805e-01 -1.164603140205144882e-02 2.680060267448425293e-01 2.030218690633773804e-01 -3.471513390541076660e-01 -1.561679225414991379e-02 -7.301183789968490601e-02
3.264599740505218506e-01 8.916449546813964844e-02 -2.716857492923736572e-01 -1.286138594150543213e-01 2.614989280700683594e-01 6.075928104110062122e-04 -2.819595634937286377e-01 1.144093228504061699e-03 -2.167380228638648987e-02 -4.222070798277854919e-02 -1.271312087774276733e-01 -3.665339201688766479e-02 -4.354729056358337402e-01 -2.195459157228469849e-01 -2.938604950904846191e-01
2.698109447956085205e-01 2.442135959863662720e-01 1.731459349393844604e-01 6.665720045566558838e-02 7.647030800580978394e-02 1.584171695867553353e-04 -1.433975249528884888e-01 -6.914592534303665161e-02 1.289979368448257446e-01 -2.603804320096969604e-02 -3.406871855258941650e-01 1.424214839935302734e-01 -3.432788252830505371e-01 -3.972627520561218262e-01 -1.784185916185379028e-01
5.198169127106666565e-02 -6.513935327529907227e-02 -2.797488272190093994e-01 1.254929155111312866e-01 4.907933473587036133e-01 3.453968092799186707e-04 -2.468256503343582153e-01 -4.952399805188179016e-02 1.474399771541357040e-02 2.478896453976631165e-02 1.089093834161758423e-01 -4.046952426433563232e-01 -5.251000449061393738e-02 6.874611973762512207e-02 2.019976228475570679e-01
-3.053873479366302490e-01 -2.594624757766723633e-01 1.305820941925048828e-01 -3.957748040556907654e-02 -2.789708673954010010e-01 -2.820495683408807963e-05 -4.149688780307769775e-01 8.916816115379333496e-02 -2.826242148876190186e-01 -2.169868648052215576e-01 -3.843999207019805908e-01 -2.954126000404357910e-01 -1.760283261537551880e-01 -2.268590480089187622e-01 -4.888551309704780579e-02
-3.653744757175445557e-01 -3.291378915309906006e-01 1.615511439740657806e-02 -1.567976176738739014e-01 3.299091756343841553e-01 9.708873927593231201e-02 2.238440513610839844e-01 -3.637690544128417969e-01 3.989998996257781982e-01 -3.518868386745452881e-01 1.225784197449684143e-01 2.545712888240814209e-01 -3.421739637851715088e-01 4.278915822505950928e-01 -1.078988052904605865e-02
-9.446579217910766602e-02 1.975168883800506592e-01 -6.117437779903411865e-02 -2.441435009241104126e-01 9.226455539464950562e-02 -7.721860706806182861e-02 8.468695729970932007e-02 -5.296372175216674805e-01 -2.814083397388458252e-01 -1.739094108343124390e-01 -4.174864888191223145e-01 3.231983482837677002e-01 3.576355278491973877e-01 -4.774101451039314270e-02 2.773095369338989258e-01
-3.520923480391502380e-02 -6.498327106237411499e-02 -7.435670495033264160e-02 2.558213472366333008e-01 -2.925426661968231201e-01 1.341192126274108887e-01 -2.042000442743301392e-01 -2.033838182687759399e-01 5.234627798199653625e-02 -8.448387682437896729e-02 2.700780332088470459e-01 -7.257384806871414185e-02 3.916037082672119141e-01 3.732705116271972656e-01 4.446777403354644775e-01
-1.939409077167510986e-01 -2.233043313026428223e-01 -1.781406067311763763e-02 -8.155257999897003174e-02 -3.667646348476409912e-01 -2.178037464618682861e-01 -4.562891423702239990e-01 1.275767683982849121e-01 2.167647182941436768e-01 7.814237475395202637e-02 -2.541513144969940186e-01 -3.584681451320648193e-01 -2.205602377653121948e-01 2.148500978946685791e-01 8.814517408609390259e-02
-2.055321335792541504e-01 -4.248288273811340332e-02 -5.664593353867530823e-02 2.387519925832748413e-01 -5.654669553041458130e-02 -1.769697070121765137e-01 -8.986239321529865265e-03 7.086234539747238159e-02 1.190600991249084473e-01 5.119891762733459473e-01 8.407072164118289948e-03 5.100052803754806519e-02 -1.954090148210525513e-01 -2.050164043903350830e-01 3.504084050655364990e-01
3.276199698448181152e-01 4.032762348651885986e-01 -3.583883866667747498e-02 -3.637400269508361816e-01 3.322621881961822510e-01 3.596041798591613770e-01 -3.490843176841735840e-01 1.154192388057708740e-01 -3.372097015380859375e-01 -4.937482178211212158e-01 6.882487982511520386e-02 2.830845415592193604e-01 3.787042200565338135e-02 4.989792034029960632e-02 -9.350802749395370483e-02
-1.108912676572799683e-01 1.166474670171737671e-01 -1.050989143550395966e-02 3.279622793197631836e-01 -8.773560076951980591e-02 2.141233533620834351e-01 -1.727748066186904907e-01 -1.860641837120056152e-01 -3.166255652904510498e-01 -3.814460635185241699e-01 4.174268543720245361e-01 -3.193116188049316406e-01 -2.796826958656311035e-01 1.505414098501205444e-01 2.215307950973510742e-01
-1.628845036029815674e-01 -6.266549974679946899e-02 -2.071621641516685486e-02 2.147226780652999878e-01 8.549764007329940796e-02 1.663799583911895752e-01 -6.839287467300891876e-03 2.927072644233703613e-01 -2.845687270164489746e-01 4.898517429828643799e-01 -2.996734082698822021e-01 -3.403213918209075928e-01 -3.454418182373046875e-01 1.212883591651916504e-01 -4.430534541606903076e-01
-3.660077154636383057e-01 8.109623938798904419e-02 -2.886890433728694916e-02 3.701071143150329590e-01 -2.652867734432220459e-01 -3.045420050621032715e-01 -3.383707404136657715e-01 8.830119669437408447e-02 1.131538227200508118e-01 -1.211358830332756042e-01 -1.578649282455444336e-01 1.630159914493560791e-01 -2.130315452814102173e-01 -1.646619141101837158e-01 -1.631576269865036011e-01
1.190015599131584167e-01 2.757741808891296387e-01 -3.820092231035232544e-02 4.303161427378654480e-02 6.742036342620849609e-02 3.823312520980834961e-01 -3.612307310104370117e-01 8.355798572301864624e-02 3.894776999950408936e-01 1.922593563795089722e-01 -8.567693829536437988e-02 1.814345121383666992e-01 8.739588409662246704e-02 -2.688123285770416260e-01 3.044004738330841064e-01
4.447963535785675049e-01 1.524167507886886597e-01 2.555460855364799500e-02 2.443758845329284668e-01 -6.313823908567428589e-02 4.107843339443206787e-01 1.326780170202255249e-01 -3.871279656887054443e-01 2.249556779861450195e-01 -3.610425591468811035e-01 -3.334130644798278809e-01 1.880456954240798950e-01 -6.489124894142150879e-02 -1.187735646963119507e-01 8.185708895325660706e-03
4.177195727825164795e-01 -1.575563102960586548e-01 1.897160778753459454e-03 3.516518771648406982e-01 -2.829017341136932373e-01 3.489744365215301514e-01 2.862240672111511230e-01 -2.004837095737457275e-01 -2.958736419677734375e-01 -3.011869192123413086e-01 1.402639299631118774e-01 -1.513048112392425537e-01 -3.623215854167938232e-01 1.369760632514953613e-01 -3.082360327243804932e-01
2.540024695917963982e-03 -1.743624955415725708e-01 -2.591369859874248505e-02 -2.315530478954315186e-01 1.845731437206268311e-01 -2.372158020734786987e-01 -6.551018357276916504e-02 1.875085085630416870e-01 1.956877410411834717e-01 -2.583532333374023438e-01 -1.686502248048782349e-01 -3.614112734794616699e-01 1.275755763053894043e-01 1.619074046611785889e-01 -1.376301497220993042e-01
1.268221884965896606e-01 3.372096270322799683e-02 -2.493401244282722473e-02 2.547500729560852051e-01 5.098083615303039551e-01 4.478676244616508484e-02 1.893810629844665527e-01 1.069862991571426392e-01 1.416022628545761108e-01 2.945905327796936035e-01 1.817466616630554199e-01 -6.173116713762283325e-02 2.990640997886657715e-01 -1.170546635985374451e-01 -1.260691732168197632e-01
-5.445803329348564148e-02 -3.400995135307312012e-01 2.337254583835601807e-02 1.422861218452453613e-01 -4.150179028511047363e-02 2.186564058065414429e-01 -9.619586169719696045e-02 2.546083033084869385e-01 -2.477211654186248779e-01 -1.078141182661056519e-01 -1.964105069637298584e-01 2.338373959064483643e-01 -5.113967657089233398e-01 4.325765073299407959e-01 -1.707364767789840698e-01
-5.250194668769836426e-01 4.208829700946807861e-01 2.895641624927520752e-01 5.691358447074890137e-01 -4.688777327537536621e-01 -1.252247393131256104e-01 -5.428885221481323242e-01 -5.752251744270324707e-01 1.498476415872573853e-01 1.403612643480300903e-01 2.555525302886962891e-01 -4.566238522529602051e-01 1.674990504980087280e-01 2.976289391517639160e-01 -2.604745328426361084e-01
2.036017179489135742e-01 -9.846972674131393433e-02 2.082740217447280884e-01 2.564488649368286133e-01 -2.521724700927734375e-01 -1.611479222774505615e-01 -2.872155010700225830e-01 -3.154030442237854004e-01 -2.406446784734725952e-01 -2.383394390344619751e-01 3.272757530212402344e-01 -2.984438538551330566e-01 -2.939886450767517090e-01 -2.710542082786560059e-01 -1.857482790946960449e-01 1.611323207616806030e-01 2.541048452258110046e-02 -2.370917350053787231e-01 1.415672302246093750e-01 -3.229672908782958984e-01 -3.378085792064666748e-01 1.573713868856430054e-02 4.734519124031066895e-02 -2.435508370399475098e-01 3.550893664360046387e-01 2.764864861965179443e-01 -1.807828694581985474e-01 -3.644099235534667969e-01 1.824162155389785767e-02 -2.909759283065795898e-01
1.528418213129043579e-01 -1.954297907650470734e-02 2.161463722586631775e-02 2.507500350475311279e-01 2.946074604988098145e-01 1.397332549095153809e-01 -7.857345975935459137e-03 8.656546473503112793e-02 -2.582672834396362305e-01 -3.532098531723022461e-01 3.104460239410400391e-01 3.677890896797180176e-01 -2.560966908931732178e-01 -1.500586122274398804e-01 -2.863069772720336914e-01 -1.163635477423667908e-01 -3.817000091075897217e-01 1.908149123191833496e-01 3.555050864815711975e-02 3.583283722400665283e-01 -2.143730074167251587e-01 1.348700076341629028e-01 2.143975496292114258e-01 -1.052721589803695679e-01 2.723836600780487061e-01 9.763784706592559814e-02 2.501652240753173828e-01 9.948139637708663940e-02 -1.807162463665008545e-01 1.593229025602340698e-01
1.585094630718231201e-01 1.765950024127960205e-02 2.651818990707397461e-01 2.979142367839813232e-01 1.534428447484970093e-01 3.934059739112854004e-01 -2.784033715724945068e-01 3.329921066761016846e-01 2.121398448944091797e-01 1.771309077739715576e-01 7.440063357353210449e-02 3.996651470661163330e-01 -1.367041841149330139e-02 2.423451691865921021e-01 9.846234321594238281e-02 -1.692730002105236053e-02 4.256245121359825134e-02 -1.752169430255889893e-01 -3.459634482860565186e-01 -5.462757870554924011e-02 -1.676941215991973877e-01 -1.410315036773681641e-01 1.198171153664588928e-01 -2.788362205028533936e-01 -1.949785649776458740e-01 -3.058365583419799805e-01 3.201623857021331787e-01 1.214292868971824646e-01 2.696714550256729126e-02 1.990737169981002808e-01
-3.658621013164520264e-01 1.155837923288345337e-01 -1.274467110633850098e-01 2.121904045343399048e-01 2.858211994171142578e-01 3.546292483806610107e-01 1.125729233026504517e-01 -3.644259274005889893e-01 -2.032297104597091675e-01 2.761417254805564880e-02 2.570299617946147919e-02 5.409286823123693466e-03 -3.732114136219024658e-01 2.473048120737075806e-01 2.849504053592681885e-01 2.344299107789993286e-02 6.856705993413925171e-03 2.393820136785507202e-01 6.405558437108993530e-02 7.763770408928394318e-03 2.508911788463592529e-01 5.918050929903984070e-02 4.001472890377044678e-02 -9.571973234415054321e-02 -2.326848953962326050e-01 2.030593305826187134e-01 2.552952468395233154e-01 -2.831072807312011719e-01 2.006792426109313965e-01 2.658852934837341309e-01
-1.726293861865997314e-01 1.878818422555923462e-01 -5.492254719138145447e-02 -6.913560628890991211e-02 2.730329036712646484e-01 1.952068507671356201e-02 -1.504571735858917236e-01 1.194991767406463623e-01 -1.510914564132690430e-01 1.160163283348083496e-01 -3.647790253162384033e-01 1.452345214784145355e-02 -8.273296803236007690e-02 -2.353714406490325928e-01 -2.686557769775390625e-01 2.418129146099090576e-01 2.196713536977767944e-01 2.871535122394561768e-01 -2.299919277429580688e-01 -3.157077133655548096e-01 7.020588964223861694e-02 -1.999250948429107666e-01 -3.879422843456268311e-01 6.401076167821884155e-02 -3.180825412273406982e-01 -8.741778135299682617e-02 2.690309584140777588e-01 -1.919393986463546753e-01 -3.102520108222961426e-01 2.797204554080963135e-01
3.849069178104400635e-01 -2.513017058372497559e-01 -1.414836794137954712e-01 2.110200375318527222e-01 -1.422916948795318604e-01 -1.165286153554916382e-01 9.780790656805038452e-02 -3.333706855773925781e-01 -3.026796281337738037e-01 -1.820926815271377563e-01 -2.665490470826625824e-02 2.652824819087982178e-01 1.736168265342712402e-01 -3.246707320213317871e-01 2.957686483860015869e-01 1.208188533782958984e-01 2.067887783050537109e-01 2.318215817213058472e-01 -1.878225207328796387e-01 -9.033259749412536621e-02 -1.326773166656494141e-01 8.803342282772064209e-02 3.494258224964141846e-01 -1.507389079779386520e-02 1.263877898454666138e-01 3.585963547229766846e-01 -1.911037713289260864e-01 -3.161365091800689697e-01 5.142523720860481262e-02 -1.459372639656066895e-01
2.219942361116409302e-01 1.404802203178405762e-01 9.033277630805969238e-03 3.225907087326049805e-01 3.659617006778717041e-01 1.200888380408287048e-01 2.366954088211059570e-01 3.547109365463256836e-01 -2.267723679542541504e-01 -6.149174645543098450e-02 2.699809521436691284e-02 2.872970998287200928e-01 2.166231721639633179e-01 -2.865100800991058350e-01 5.606720596551895142e-02 3.208689689636230469e-01 -2.328823506832122803e-01 7.361271977424621582e-02 6.330110877752304077e-02 2.792454361915588379e-01 -1.837645918130874634e-01 -6.122962757945060730e-02 -3.397592306137084961e-01 -2.003526389598846436e-01 4.782293736934661865e-02 9.679683484137058258e-03 -2.487857341766357422e-01 -2.482950240373611450e-01 -3.446300029754638672e-01 1.255989223718643188e-01
-3.603463247418403625e-02 2.296692319214344025e-02 -8.101851493120193481e-02 1.777290105819702148e-01 -2.406563460826873779e-01 2.942091822624206543e-01 3.970887064933776855e-01 2.966261506080627441e-01 2.273183166980743408e-01 -2.425585389137268066e-01 1.453532427549362183e-01 2.488195449113845825e-01 3.528685271739959717e-01 3.113716244697570801e-01 2.998820245265960693e-01 -1.121777966618537903e-01 -1.679545938968658447e-01 1.276628226041793823e-01 1.477620303630828857e-01 2.744689285755157471e-01 1.877507418394088745e-01 -1.023515090346336365e-01 1.696212776005268097e-02 1.841474622488021851e-01 1.938520669937133789e-01 -7.987355440855026245e-02 5.519977957010269165e-02 -2.493880391120910645e-01 2.253908216953277588e-01 -1.548924297094345093e-01
4.828851047641197299e-29 -4.838175256911015815e-29 -4.845988513954151782e-29 4.814536272402985358e-29 4.827667202578506770e-29 4.901797449844186720e-29 4.878193372816398281e-29 4.907807254050336327e-29 -4.858959351203046005e-29 -4.876412790397501520e-29 4.831081515258040766e-29 -4.866496357669783929e-29 -4.878568026375892361e-29 -4.859917501350378655e-29 4.830533828930105646e-29 -4.852948945143788777e-29 -4.849422085933129651e-29 4.855583858048953564e-29 -4.845764022745009145e-29 4.867586915500793201e-29 -4.846242195039014039e-29 -4.832277397382883716e-29 -4.891464534765995389e-29 4.881723843145703133e-29 -4.885228132864826471e-29 -4.888398394109220147e-29 4.859996043180923197e-29 -4.820350775275711947e-29 -4.859425787361452289e-29 -4.832656564840684953e-29
-4.824668469469785081e-29 -4.859681574932191219e-29 -4.833436566468161783e-29 4.847550322768428306e-29 -4.861493453712684273e-29 4.903528981234812369e-29 -4.891735970517532465e-29 -4.855189042410354181e-29 4.855601612715628384e-29 -4.865181007703078209e-29 -4.888470616482134669e-29 4.875956886668478604e-29 4.883568221994007722e-29 -4.886247672029136464e-29 -4.847071247694761981e-29 4.851875239199792893e-29 4.845914486021914398e-29 -4.892093170336905535e-29 -4.813012681261042768e-29 -4.824617612882191106e-29 -4.851048894883029244e-29 4.835166292299464569e-29 -4.884365978288159372e-29 -4.840073501612452484e-29 4.831844063145396587e-29 4.843376772393630404e-29 -4.888497098018869993e-29 -4.843217883173218457e-29 4.843827861297792352e-29 -4.715018055498528292e-29
4.876023692363424536e-29 4.854913092760509947e-29 4.871915443050803513e-29 4.908423250705986432e-29 -4.825786110690637299e-29 -4.891645692551389313e-29 -4.832102859981673622e-29 -4.832216911145567804e-29 -4.897077416847668939e-29 -4.889060733454157070e-29 -4.846193444937296737e-29 -4.821520175863819572e-29 -4.826974168725081175e-29 4.893220140280925879e-29 4.823503582779984614e-29 4.831713461021042828e-29 4.877559320567519546e-29 -4.870226041377711335e-29 4.889928003782238947e-29 -4.905317086817554393e-29 -4.871390928067511802e-29 -4.851979058860857517e-29 -4.901338837776179509e-29 4.830249754263308529e-29 4.822725386711830647e-29 4.893275510766827012e-29 4.884003361790817713e-29 4.880635993653678155e-29 4.898621170068716833e-29 -4.825456295187660985e-29
4.846156130044624234e-29 -4.876643901990827988e-29 -4.851024519832170594e-29 -4.826103287278353572e-29 4.821797931072986668e-29 -4.836084419215140422e-29 -4.824535159006447027e-29 4.852206559335538260e-29 -4.842807419353820928e-29 4.894625166360667129e-29 -4.846033051084115737e-29 -4.821737745762224567e-29 -4.825587800091676176e-29 -4.858087566976656971e-29 -4.808876746705471179e-29 -4.830532023370782783e-29 4.826276320046794613e-29 -4.864088644312746073e-29 4.889011080572778337e-29 4.811291682299800486e-29 -4.830417069427227170e-29 -4.825267313311867988e-29 -4.847085692169344886e-29 4.856186613936236007e-29 -4.821833440406336308e-29 -4.868314555907907003e-29 4.873679474509240697e-29 4.847454327197762755e-29 -4.888080615668396253e-29 4.842134848506054448e-29
-2.517079710960388184e-01 -2.998156249523162842e-01 3.093146979808807373e-01 -1.325424015522003174e-01 -3.357242047786712646e-01 3.120014369487762451e-01 -1.063152700662612915e-01 -2.045115530490875244e-01 1.558363586664199829e-01 9.985066950321197510e-02 -3.133276402950286865e-01 1.102002561092376709e-01 -3.018510341644287109e-01 -2.067096680402755737e-01 -1.319802403450012207e-01 -5.819533392786979675e-02 -3.672724589705467224e-02 1.622395515441894531e-01 -3.117017745971679688e-01 3.127679228782653809e-02 8.774088323116302490e-02 8.332594484090805054e-02 -2.828566730022430420e-01 2.953153550624847412e-01 7.245645858347415924e-03 2.817120552062988281e-01 2.612742781639099121e-02 5.361955612897872925e-02 -2.850062549114227295e-01 2.681978978216648102e-02
-4.824915229243909696e-29 -4.831120936636589943e-29 4.847031525389658995e-29 -4.825996458351750843e-29 4.876597559301541170e-29 4.848348680915687578e-29 4.864511145194296023e-29 -4.859651181350256358e-29 4.895736789050443137e-29 4.908750658796532262e-29 4.855433695698602122e-29 -4.851562275583829967e-29 4.846455852892219497e-29 -4.833339066264727179e-29 4.890438676144055375e-29 4.893781368303782471e-29 4.841461073952072725e-29 -4.880303168885163736e-29 -4.862873201961905441e-29 4.878051034556445912e-29 4.867730457466960812e-29 -4.895389519807345813e-29 -4.844805270744568874e-29 4.867563443229595981e-29 -4.870066550304191767e-29 -4.868284764179079763e-29 4.863363712244616565e-29 4.901061985346673844e-29 -4.821618277920361797e-29 -4.825720207775352798e-29
4.899450222724464776e-29 -4.835083838423720491e-29 -4.839158684888868547e-29 4.852779523493993462e-29 4.822696196836111028e-29 -4.875433876317955945e-29 4.854326586907133272e-29 4.884943155418367922e-29 -4.864536723951369916e-29 4.882299816569696441e-29 4.822342909061937494e-29 -4.811778882390419695e-29 -4.844050847874165937e-29 -4.825606156611458617e-29 4.846707126564651270e-29 -4.832187119416740564e-29 4.898823392712877493e-29 4.837137060300369571e-29 -4.863682092538548080e-29 4.892593310269338595e-29 -4.894146091287000804e-29 4.900817332058425903e-29 -4.868155967614048867e-29 -4.876585522239388750e-29 -4.891289997364785296e-29 -4.844725224281255280e-29 -4.822918581559376991e-29 -4.841856190517225919e-29 -4.856920573800979830e-29 4.891444673613443895e-29
6.385728716850280762e-02 2.631344795227050781e-01 6.947935372591018677e-02 -9.726469963788986206e-02 -2.243173420429229736e-01 3.771177828311920166e-01 -2.980101406574249268e-01 -2.651287913322448730e-01 2.401887252926826477e-02 2.762177772819995880e-02 -2.514010109007358551e-02 2.479564398527145386e-02 4.361219704151153564e-01 -1.553552784025669098e-02 2.740195207297801971e-02
-2.994044721126556396e-01 2.265309244394302368e-01 2.991001904010772705e-01 -1.710747778415679932e-01 4.537862539291381836e-02 -1.240501552820205688e-01 -1.978571265935897827e-01 1.745386421680450439e-01 -8.699831366539001465e-02 1.045060902833938599e-01 1.492549777030944824e-01 -1.478118449449539185e-01 6.269641220569610596e-02 1.361559033393859863e-01 1.295159850269556046e-02
3.303224742412567139e-01 2.831725180149078369e-01 3.803772330284118652e-01 1.226071193814277649e-01 -5.126274824142456055e-01 -3.087788224220275879e-01 2.944659888744354248e-01 -5.304744839668273926e-02 -1.219412758946418762e-01 -1.034128442406654358e-01 -2.338138967752456665e-01 -5.081094801425933838e-02 -3.330075740814208984e-01 1.087116748094558716e-01 3.551568463444709778e-02
-3.816765844821929932e-01 1.193652227520942688e-01 2.722730636596679688e-01 -3.352653980255126953e-01 -4.126293063163757324e-01 -1.090417802333831787e-01 -1.460664421319961548e-01 4.652196168899536133e-02 -4.971078410744667053e-02 3.014333844184875488e-01 2.313454002141952515e-01 7.624956220388412476e-02 -8.473233878612518311e-02 2.072667032480239868e-01 -5.876237526535987854e-02
-1.614940315485000610e-01 -8.266226202249526978e-02 2.639013156294822693e-02 6.637191772460937500e-02 3.192326724529266357e-01 -1.886102557182312012e-01 2.925293445587158203e-01 2.333202213048934937e-02 -3.581965267658233643e-01 2.302677743136882782e-02 1.752914786338806152e-01 -2.781910300254821777e-01 -1.696034818887710571e-01 1.174158528447151184e-01 1.202733162790536880e-02
3.412789106369018555e-01 -3.105895221233367920e-01 -3.801809847354888916e-01 4.362558480352163315e-03 1.679182797670364380e-01 -7.737563550472259521e-02 -2.457434535026550293e-01 2.928079962730407715e-01 9.918884374201297760e-03 -1.472834199666976929e-01 5.121618881821632385e-02 5.641187354922294617e-02 -3.191732466220855713e-01 4.197445139288902283e-02 -4.093415662646293640e-02
-3.033675551414489746e-01 7.282550632953643799e-02 3.255800902843475342e-02 -1.920839957892894745e-02 1.555036455392837524e-01 -3.024408817291259766e-01 -4.000505805015563965e-01 9.442086517810821533e-02 -1.144700795412063599e-01 4.082013368606567383e-01 -7.342848181724548340e-02 5.844068154692649841e-02 -6.427297592163085938e-01 -2.473433166742324829e-01 1.043301355093717575e-02
-8.642119169235229492e-02 3.340277969837188721e-01 4.405303895473480225e-01 -3.979729115962982178e-01 -2.580479979515075684e-01 -1.736436486244201660e-01 -2.475573420524597168e-01 -3.408400714397430420e-02 7.631156593561172485e-03 -1.710331737995147705e-01 -1.591681838035583496e-01 -1.816906183958053589e-01 1.860931813716888428e-01 -1.995045095682144165e-01 -6.726946448907256126e-04
2.039495855569839478e-01 2.890001051127910614e-02 3.096851110458374023e-01 4.682586004491895437e-04 1.227244585752487183e-01 1.411540508270263672e-01 1.966605335474014282e-01 -2.390378713607788086e-01 -8.309991657733917236e-02 1.283984631299972534e-01 8.732763490115758032e-06 2.559320926666259766e-01 2.927964031696319580e-01 2.367784827947616577e-02 4.732188768684864044e-03
4.311632737517356873e-02 8.384487032890319824e-02 -1.393972337245941162e-02 2.120411992073059082e-01 -2.927120327949523926e-01 4.848418533802032471e-01 -2.203481085598468781e-02 -2.697975039482116699e-01 7.509882003068923950e-02 1.003261059522628784e-01 -4.456711933016777039e-03 -6.946840137243270874e-02 1.671758592128753662e-01 -2.857721745967864990e-01 6.204867362976074219e-02
3.110289759933948517e-02 -1.551631093025207520e-01 -3.442665189504623413e-02 -9.998398274183273315e-02 4.760764241218566895e-01 -1.517446935176849365e-01 -2.582473158836364746e-01 -3.147449195384979248e-01 1.503127366304397583e-01 2.653874754905700684e-01 -1.085081771016120911e-01 1.381912082433700562e-01 -1.597202569246292114e-01 -3.071381151676177979e-01 7.847227156162261963e-02
1.949528753757476807e-01 3.536271676421165466e-02 1.948032081127166748e-01 -3.846388757228851318e-01 -1.689125150442123413e-01 -8.190117776393890381e-02 -1.646063029766082764e-01 1.278389841318130493e-01 -7.332128006964921951e-03 1.263404190540313721e-01 4.946159943938255310e-02 -2.571577727794647217e-01 -2.712312340736389160e-01 1.788356304168701172e-01 -1.102566136978566647e-03
-7.990186102688312531e-03 -1.265955269336700439e-01 -3.539169430732727051e-01 -2.915694713592529297e-01 -1.907370090484619141e-01 -4.554847776889801025e-01 5.157354846596717834e-02 -2.796916365623474121e-01 2.598113119602203369e-01 2.393143922090530396e-01 -4.120586439967155457e-02 3.035370111465454102e-01 -3.091815412044525146e-01 -2.071225494146347046e-01 9.296597563661634922e-04
-5.414330214262008667e-02 -3.022217750549316406e-01 2.870076298713684082e-01 -1.832226812839508057e-01 1.612708717584609985e-01 -1.731740236282348633e-01 2.359868735074996948e-01 3.683165907859802246e-01 1.347964704036712646e-01 -2.069884240627288818e-01 1.538815349340438843e-01 -2.738370299339294434e-01 1.541120707988739014e-01 -5.804045125842094421e-02 6.914305500686168671e-03
7.385475933551788330e-02 -1.961934417486190796e-01 1.792306825518608093e-02 -3.823704421520233154e-01 2.327069081366062164e-02 -3.692799061536788940e-02 2.405555099248886108e-01 -4.263293370604515076e-02 -1.429789215326309204e-01 -2.250367105007171631e-01 -2.749806940555572510e-01 9.205727279186248779e-02 -1.597149074077606201e-01 -3.026618659496307373e-01 4.589931294322013855e-02
-2.794281542301177979e-01 -2.967111766338348389e-02 3.135842084884643555e-01 -3.960755169391632080e-01 1.749178618192672729e-01 1.467819809913635254e-01 3.850225359201431274e-02 2.426242828369140625e-01 1.755780577659606934e-01 -4.253045916557312012e-01 7.189546525478363037e-02 4.289485514163970947e-02 -2.764790654182434082e-01 9.152423590421676636e-02 2.055093199014663696e-01
-1.558498442173004150e-01 -1.397561430931091309e-01 -3.329116702079772949e-01 2.116176784038543701e-01 3.990622982382774353e-02 -1.941632293164730072e-02 9.608198702335357666e-02 -8.902125060558319092e-02 1.676438450813293457e-01 9.010566025972366333e-02 3.452456742525100708e-02 4.043412804603576660e-01 -3.693658709526062012e-01 1.651263833045959473e-01 -1.589726209640502930e-01
3.185754418373107910e-01 3.395577967166900635e-01 -4.856898263096809387e-02 3.356032371520996094e-01 2.463294714689254761e-01 -3.896901309490203857e-01 3.361554741859436035e-01 -1.939780414104461670e-01 -1.171422228217124939e-01 -4.677564650774002075e-02 -2.816064655780792236e-01 -1.955984234809875488e-01 -5.726293846964836121e-02 -1.701358407735824585e-01 1.151434257626533508e-01
-3.429985344409942627e-01 6.911442149430513382e-03 -3.127209469676017761e-02 -4.729710817337036133e-01 -2.828092277050018311e-01 -2.755942940711975098e-01 -4.395957887172698975e-01 1.809253841638565063e-01 1.536970734596252441e-01 3.549064099788665771e-01 6.836534291505813599e-02 3.872734606266021729e-01 -2.356449216604232788e-01 -6.924727559089660645e-02 -3.403245657682418823e-02
2.825593352317810059e-01 3.725086450576782227e-01 5.957010667771100998e-03 1.809924244880676270e-01 -1.121476292610168457e-01 2.989078760147094727e-01 2.222770452499389648e-01 -1.988393366336822510e-01 -8.532115072011947632e-02 -1.967704743146896362e-01 -3.802922964096069336e-01 -2.206614315509796143e-01 -9.405237436294555664e-02 -1.843653023242950439e-01 5.767883658409118652e-01
-2.122453451156616211e-01 -5.225441455841064453e-01 1.257805526256561279e-01 -2.237592488527297974e-01 -3.234546184539794922e-01 -3.194965124130249023e-01 -2.982147336006164551e-01 -1.848593503236770630e-01 4.143655002117156982e-01 -1.427697986364364624e-01 3.493958413600921631e-01 3.333135545253753662e-01 4.175620377063751221e-01 -3.766036629676818848e-01 -1.097756773233413696e-01
-9.836878627538681030e-02 -1.323708742856979370e-01 -3.894736766815185547e-01 -7.200758904218673706e-02 -1.461209058761596680e-01 3.892267942428588867e-01 3.777793347835540771e-01 3.216727674007415771e-01 -2.948550581932067871e-01 3.501955866813659668e-01 2.891550958156585693e-01 -1.274254452437162399e-02 -2.300742119550704956e-01 4.616042971611022949e-01 2.759303897619247437e-02
5.850841850042343140e-02 -7.417546003125607967e-04 -3.371718525886535645e-01 -2.836297154426574707e-01 4.484198614954948425e-02 3.330144584178924561e-01 -1.186187788844108582e-01 1.367106437683105469e-01 -3.584749996662139893e-01 -1.856911033391952515e-01 -4.527688398957252502e-02 1.229880377650260925e-01 3.259513974189758301e-01 -2.478494644165039062e-01 -9.296693652868270874e-02
-2.478212863206863403e-01 3.559088706970214844e-01 7.118624448776245117e-02 -1.354830861091613770e-01 -3.099091053009033203e-01 2.056015729904174805e-01 4.266807734966278076e-01 1.472226828336715698e-01 -2.184665203094482422e-01 3.828584849834442139e-01 8.537217229604721069e-02 1.611206978559494019e-01 2.577399909496307373e-01 -3.062801361083984375e-01 2.319673150777816772e-01
-2.371840327978134155e-01 1.202105954289436340e-01 2.605138532817363739e-02 2.434970885515213013e-01 2.450571954250335693e-01 -1.039015352725982666e-01 2.528105974197387695e-01 5.458073616027832031e-01 2.194986492395401001e-02 2.064632475376129150e-01 -2.750766575336456299e-01 -2.973749339580535889e-01 -1.924765259027481079e-01 2.596711218357086182e-01 -6.262397021055221558e-02
-3.441098630428314209e-01 3.672175854444503784e-02 -2.750354409217834473e-01 -4.435616731643676758e-01 -2.342795580625534058e-01 -2.509616613388061523e-01 -1.483876109123229980e-01 1.610513329505920410e-01 5.466297641396522522e-02 1.922563016414642334e-01 -4.562812671065330505e-02 2.381042391061782837e-01 4.642108380794525146e-01 -4.579554498195648193e-01 -2.355743646621704102e-01
6.915241479873657227e-02 -8.282775431871414185e-02 -3.450492322444915771e-01 1.959344148635864258e-01 -5.386161804199218750e-01 1.614317595958709717e-01 4.127114713191986084e-01 -2.399218678474426270e-01 -2.346133440732955933e-01 -1.619210392236709595e-01 -1.248812824487686157e-01 -1.717067360877990723e-01 -1.224793046712875366e-01 3.288705348968505859e-01 -2.549641728401184082e-01
3.006612360477447510e-01 1.140918731689453125e-01 7.501293718814849854e-02 1.213479191064834595e-01 -2.247401624917984009e-01 3.438830673694610596e-01 -2.484685480594635010e-01 1.357376109808683395e-02 -4.370018541812896729e-01 -3.339307755231857300e-02 -3.400051593780517578e-01 -5.312954783439636230e-01 1.293724328279495239e-01 -4.971905052661895752e-02 1.060389280319213867e-01
-1.290743947029113770e-01 3.183329701423645020e-01 -1.607145369052886963e-01 -3.398524224758148193e-01 6.419239193201065063e-02 3.842701315879821777e-01 -1.897554546594619751e-01 -1.250631213188171387e-01 3.453790843486785889e-01 2.863143384456634521e-01 -8.716853708028793335e-02 1.396551877260208130e-01 2.735992074012756348e-01 7.963578402996063232e-02 -2.726229429244995117e-01
-8.436200022697448730e-02 -3.815606534481048584e-01 -2.637331187725067139e-01 -1.272530853748321533e-01 3.085429072380065918e-01 -4.063626527786254883e-01 4.425460994243621826e-01 -3.805122375488281250e-01 2.484583295881748199e-02 2.183453179895877838e-02 1.662173420190811157e-01 2.237440049648284912e-01 -2.929249703884124756e-01 4.342328011989593506e-01 7.885349541902542114e-02
4.574661850929260254e-01 2.804794609546661377e-01 1.460733562707901001e-01 3.357314169406890869e-01 1.945503801107406616e-01 -3.199565112590789795e-01 2.290076464414596558e-01 1.842041760683059692e-01 -2.958889901638031006e-01 -3.162774443626403809e-01 -5.326869338750839233e-02 -1.732461899518966675e-01 -7.740224897861480713e-02 -3.803713917732238770e-01 -4.449267387390136719e-01
-9.449809044599533081e-02 2.519296705722808838e-01 -1.987394839525222778e-01 -6.378923356533050537e-02 2.221747934818267822e-01 1.185866445302963257e-01 -1.963046491146087646e-01 8.799721300601959229e-02 1.738778352737426758e-01 1.790826767683029175e-02 1.149497833102941513e-02 2.751817703247070312e-01 2.988259196281433105e-01 3.481158614158630371e-01 -1.394452601671218872e-01 -3.896591067314147949e-02 -4.072971269488334656e-02 -1.569032967090606689e-01 -6.303206551820039749e-03 -7.789305597543716431e-02 1.438475102186203003e-01 1.187420263886451721e-02 1.628394722938537598e-01 4.573570191860198975e-02 4.362881928682327271e-02 -1.642842143774032593e-01 1.690390557050704956e-01 -2.758091092109680176e-01 -1.082806214690208435e-01 2.851265966892242432e-01
-2.831739187240600586e-01 8.780509233474731445e-02 -2.937228679656982422e-01 1.954938918352127075e-01 9.382394701242446899e-02 -2.017544358968734741e-01 -3.487980663776397705e-01 6.876946985721588135e-02 -2.336486726999282837e-01 2.341415546834468842e-02 2.241846472024917603e-01 1.295769661664962769e-01 5.435009673237800598e-02 3.205665647983551025e-01 3.001476824283599854e-01 1.442269533872604370e-01 -5.502661690115928650e-02 3.251597583293914795e-01 2.246103435754776001e-01 1.739066094160079956e-01 -1.562160104513168335e-01 -1.368152946233749390e-01 -3.413031101226806641e-01 -2.837299183011054993e-02 1.139993369579315186e-01 2.717055976390838623e-01 1.244800984859466553e-01 3.181249499320983887e-01 1.996210664510726929e-01 -1.625030338764190674e-01
2.584744989871978760e-01 3.100253641605377197e-01 -7.437123358249664307e-02 1.222439333796501160e-01 -5.586835741996765137e-02 -2.637401819229125977e-01 -3.012477159500122070e-01 -9.011692553758621216e-02 -9.103910624980926514e-02 1.983319371938705444e-01 1.060261949896812439e-01 -1.944118440151214600e-01 3.229981660842895508e-01 -1.746421493589878082e-02 6.636297702789306641e-02 3.528276681900024414e-01 -2.205498665571212769e-01 -2.516476809978485107e-01 7.729155570268630981e-02 3.046899139881134033e-01 2.056752145290374756e-01 3.429526984691619873e-01 5.321437492966651917e-02 -6.578941643238067627e-02 1.427387744188308716e-01 -7.301869988441467285e-02 1.899229586124420166e-01 1.440685987472534180e-01 -4.194360226392745972e-02 -6.630325317382812500e-02
-4.861392342390603943e-29 -4.849311044034773575e-29 4.838450604707752427e-29 -4.828584125787967380e-29 4.902117033844333477e-29 -4.831949688365784075e-29 -4.879418745743514660e-29 -4.904464862817163041e-29 4.890924070675351721e-29 -4.884524265655463698e-29 -4.917501302054787955e-29 -4.904658960444370817e-29 -4.874161859774998938e-29 4.896092785163600965e-29 4.852264638160423687e-29 4.834330017406425174e-29 -4.832502490445133974e-29 -4.908094337982671549e-29 -4.897361491514466057e-29 4.847604790474668008e-29 4.862965887340479077e-29 4.889452840753772159e-29 4.864555080471152357e-29 -4.903684259336578590e-29 4.835249648954870079e-29 4.822898720406825498e-29 4.866954969737791139e-29 4.852556235991066067e-29 4.880734697563328001e-29 -4.905911416761330142e-29
-8.471177518367767334e-02 1.816696673631668091e-01 -8.250223100185394287e-02 -3.012594282627105713e-01 4.171500355005264282e-02 -2.263437509536743164e-01 3.051546812057495117e-01 1.111336052417755127e-03 -2.360721584409475327e-03 -1.581057310104370117e-01 1.916541606187820435e-01 2.933465242385864258e-01 -1.506724506616592407e-01 -2.512806840240955353e-02 2.418732643127441406e-01 6.916140764951705933e-02 -2.066288739442825317e-01 -8.406163752079010010e-02 -1.021666303277015686e-01 -2.673744261264801025e-01 -3.042818009853363037e-01 1.829202473163604736e-01 1.614685952663421631e-01 -6.661082804203033447e-02 1.760060936212539673e-01 -3.232614099979400635e-01 3.002943396568298340e-01 1.627755314111709595e-01 -5.481735244393348694e-02 1.458789557218551636e-01
1.035332083702087402e-01 1.202751789242029190e-02 -1.775618195533752441e-01 3.397452533245086670e-01 7.417414337396621704e-02 2.825510203838348389e-01 1.074106469750404358e-01 -1.966696530580520630e-01 1.339347958564758301e-01 1.939706951379776001e-01 1.303294599056243896e-01 6.964994966983795166e-02 2.983626127243041992e-01 7.247288525104522705e-02 -2.888730168342590332e-01 -1.805728375911712646e-01 -2.247195988893508911e-01 2.175328433513641357e-01 -2.789578735828399658e-01 -2.454112172126770020e-01 2.975662937387824059e-03 -6.159326434135437012e-02 1.166415885090827942e-01 -7.580226659774780273e-02 2.051749527454376221e-01 3.123514354228973389e-01 -4.657579213380813599e-02 -2.085655629634857178e-01 2.452544569969177246e-01 3.084606826305389404e-01
-1.023599579930305481e-01 3.751838085008785129e-05 1.573473513126373291e-01 -1.885582953691482544e-01 -2.054905295372009277e-01 -1.302193850278854370e-02 -2.461693063378334045e-02 3.452806770801544189e-01 5.391993746161460876e-02 1.023030355572700500e-01 -1.824430376291275024e-01 -2.167527228593826294e-01 -6.662598997354507446e-02 2.564365565776824951e-01 2.648532092571258545e-01 -3.332062661647796631e-01 4.037075936794281006e-01 1.073992848396301270e-01 2.783186435699462891e-01 4.084127768874168396e-02 3.782269060611724854e-01 -1.490228176116943359e-01 9.264781326055526733e-02 -3.578976392745971680e-01 -4.161671921610832214e-02 -1.219773963093757629e-01 -2.318734079599380493e-01 -1.802581995725631714e-01 -6.683976948261260986e-02 1.484136283397674561e-01
3.498818278312683105e-01 2.259823828935623169e-01 -7.086957246065139771e-02 -2.677201628684997559e-01 2.390439957380294800e-01 -2.606482505798339844e-01 -1.304115075618028641e-02 2.435394674539566040e-01 1.155776530504226685e-01 -2.902381718158721924e-01 -1.662257909774780273e-01 2.880356907844543457e-01 3.235896527767181396e-01 -2.150388956069946289e-01 -5.411467701196670532e-02 -1.712689846754074097e-01 -2.257017344236373901e-01 -3.020946681499481201e-01 8.481150865554809570e-02 1.839919090270996094e-01 2.363420128822326660e-01 2.788852751255035400e-01 2.874126434326171875e-01 3.102313280105590820e-01 3.324141800403594971e-01 -1.781034022569656372e-01 -1.961427628993988037e-01 3.621486201882362366e-02 -3.273835405707359314e-02 -1.830781847238540649e-01
